9712 25
use -1.0863187 1.2506233 -0.48870245 -1.861181 -1.1180354 -1.8612679 -0.60074025 0.9305776 -1.591235 -0.1316933 -0.7980625 0.0020046593 -0.76506037 -0.030629527 0.015200483 -0.10260883 0.27680898 0.68479836 -0.2855741 1.4623041 -1.5709828 0.1385187 -0.112498 1.7766176 0.33042824
model -1.6460893 0.7232524 -0.2700196 -1.8941525 -1.1787094 -1.716778 -0.6600276 0.35031807 -1.0006083 0.13019617 -0.93478817 -0.27167928 -1.0782712 -0.39207852 0.27614468 0.28841415 0.2468564 0.25209242 0.13096376 1.7195789 -2.0859046 -0.66638815 -0.063625894 2.3416986 -0.534663
function -0.12880647 0.7256444 0.31146088 -2.1591744 -0.6436581 -2.017264 0.8202374 0.37531516 -1.9107331 0.12430996 0.4270613 1.0847436 -0.76981604 -0.7604019 0.9955444 0.06363008 0.22912903 0.68403786 -0.47712237 0.19544747 -0.17292719 1.1721017 1.0104681 0.14470461 -0.19144695
set -0.05328677 2.2379055 -1.1763518 -1.3098624 -2.879096 -1.8583579 0.48105985 1.3194647 -1.4815577 0.7778307 0.8442474 0.5879153 -1.1679876 -1.3169314 0.39763153 -1.0498838 0.009601754 -0.64876986 -2.2186472 0.47335106 0.09915176 1.8525908 0.76756096 1.897695 1.2173305
data -0.7115159 1.909953 -1.0574949 -1.0901023 -2.3210652 -1.6764302 -0.21591558 1.642277 -1.1965514 0.40832135 -0.027318561 0.11784883 -0.83627796 -0.80484664 0.34380478 -0.8667383 0.07755102 -0.21562055 -1.6473927 0.692674 -0.6987665 0.86000454 0.13861005 2.2027984 1.3086332
learn -1.248244 2.3558023 -0.64039105 -1.4523933 -1.2043467 -2.0374696 -1.0763472 1.4978468 -1.4592159 -0.22602929 -1.4159019 -0.3964176 -0.6087113 -0.12462007 -0.57485473 -0.23184744 0.12519561 1.4998945 0.16654573 1.4765962 -2.2330837 -0.7742228 -1.2113874 2.413755 1.133688
algorithm -1.1613953 2.029803 -0.5501816 -1.3519506 -0.8077424 -2.1920967 -1.020021 2.4023893 -1.7733485 -0.36100525 -1.8616631 0.062150024 -0.49166697 0.21356262 0.1025106 -0.3680564 0.25924674 1.9620395 -0.046470813 1.2296829 -2.0483658 -0.53779566 -0.9629271 1.6143975 1.4094883
distribut -0.9548835 -0.84543794 0.33350864 -3.3910735 -0.75889325 -2.0764523 0.37597945 -0.7834442 -2.0260594 0.68870014 0.86782444 0.783026 -1.7704207 -0.14755456 1.1368791 0.50332594 0.33376667 -0.4439741 -0.45340648 1.4571275 -0.36004084 1.8574226 1.9254173 0.4930066 -1.1910955
one -0.5579367 1.4737723 -0.42442662 -1.882756 -1.1727413 -1.7080668 0.04156544 0.17219676 -1.6003789 0.0053370516 -0.14654544 0.17930844 -1.2298738 -0.66812694 0.4525976 -0.20122716 0.14291076 0.071637526 -0.6393922 0.5265727 -0.83966154 0.6429898 0.87527514 0.972906 0.21718244
gener -0.833181 1.0489151 -0.5432248 -1.738461 -1.1690599 -1.7524128 -0.3314504 1.1278399 -1.3021034 0.2765481 -0.6747565 -0.02294146 -0.9063292 -0.03595669 0.40774405 -0.22656713 0.29261166 0.62035495 -0.5456945 1.3711091 -1.4831363 0.38411343 -0.10462987 1.6865673 0.56679714
state -0.67916983 1.0737329 0.81421113 -3.3308842 -1.280577 -1.4786263 0.411674 -1.5188082 -1.6939613 0.2520058 0.8577947 0.30849025 -1.7339298 -1.2646588 0.46522868 0.8451475 -0.10463617 -0.27631515 -0.28758848 0.9326239 -0.55857044 0.43837646 1.7793803 1.0471311 -1.4118598
result -0.7820577 1.7663652 -0.9468729 -1.4450998 -0.6035053 -2.0277443 -0.8874759 2.176096 -1.8497391 -0.030090896 -1.7133138 -0.12656285 -0.79775345 0.10241376 0.4627501 -0.631942 0.24471366 1.6691549 -0.46605933 0.9667604 -2.042206 -0.12509085 -0.34411123 1.5209627 1.7560064
valu -0.004313821 1.2168565 -0.2436375 -2.4473188 -0.7387306 -1.9321425 0.4704529 -0.26413947 -2.1108243 -0.041740492 0.41929895 0.6590585 -1.0663776 -0.3819929 0.68044835 -0.06556493 0.23583683 0.21027552 -0.7456258 0.30690664 -0.04096496 1.471036 1.5659343 0.094411336 -0.31229174
figur -0.5582596 1.7824969 -1.1165239 -1.9347593 -0.669193 -1.872172 -0.19550218 0.87399536 -2.0337605 0.5735668 -1.152515 -0.12935266 -1.4870307 -0.1993783 0.888541 -0.811985 0.12695734 0.5588054 -1.0789517 0.523895 -1.5096303 0.32557434 0.9991411 0.97609 1.3008535
number 0.06173021 1.8596971 -0.7674654 -2.1663923 -1.1855922 -1.7564182 0.29630107 0.26127896 -1.9606149 0.21185264 0.5587045 0.21926878 -1.5076181 -0.9932398 0.8747714 -0.57901996 0.20309715 -0.49400657 -1.2402793 0.11591841 -0.044189237 1.3854481 1.3018143 0.6145916 0.16201907
time -0.24227789 1.7091737 -0.616822 -2.2362473 -0.84602493 -1.46484 0.13631596 -0.3860138 -1.8375752 0.22948702 -0.07191135 0.13942821 -1.3607738 -0.5794734 0.83173037 -0.14493267 0.18818869 -0.06383808 -0.30056673 0.33172977 -0.68566173 0.54117346 1.2992244 0.31634066 -0.09724992
input -0.2744806 2.306137 -0.39717352 -2.062683 -1.5664339 -1.2617402 0.54899865 -1.6921858 -1.8162315 0.04585685 0.5460914 -0.6193305 -2.031718 -2.0367174 0.56997544 0.24361822 -0.09629422 -1.2894946 -0.9036562 -0.061401103 -0.7166215 0.06385301 1.9959285 1.1927361 -0.890149
network -1.1818819 3.0067277 -0.32223305 -2.3869486 -1.1125892 -0.4570936 -0.18219128 -0.9535131 -0.96715665 0.15573329 -0.89916176 -1.2793587 -1.7811741 -1.2257444 -0.4922176 0.30831137 -0.3963435 0.16524035 0.5686936 1.5152318 -2.566324 -1.9107665 -0.0806835 2.1988974 -0.38678834
paramet -0.5966299 -0.057937756 -0.026460184 -2.3700945 -0.6689262 -1.965563 0.11559738 0.10919784 -1.926793 0.033777695 0.20271474 0.7909918 -0.8807114 -0.003354304 0.6834657 0.1369262 0.37702563 0.012810284 -0.6318743 1.0124052 -0.32857114 1.4338659 1.249993 0.6275972 -0.6024585
two -0.78310406 1.5107579 -0.38928223 -1.7485529 -1.1624575 -1.396949 0.034331206 0.15450981 -1.3328892 0.2374971 -0.36542785 -0.19526163 -1.4899868 -0.7986741 0.5475545 -0.06786646 0.086867735 0.1836616 -0.62030065 0.56343126 -1.3532081 0.065434314 0.68962866 1.3150727 0.17729516
estim -0.729232 0.03734043 -0.40380082 -2.054266 -0.5088267 -1.9067112 -0.41522098 0.38566747 -1.8926175 -0.38014492 -0.5828681 0.31595978 -0.4227748 0.49697673 0.44991073 -0.035442427 0.2885103 0.38880894 -0.3319755 1.0773153 -0.907062 1.1853434 0.7767808 0.79791594 0.12199767
train -0.014989687 3.0473309 -1.720562 -1.3411332 -3.163413 -1.7548177 0.17665857 1.3515775 -1.6149931 0.6031256 0.4467852 -0.019895913 -1.0588975 -1.1240919 -0.059028856 -1.2697941 0.07217068 -0.6014307 -2.3495624 0.7588141 -0.45572907 1.6139561 0.33606133 2.4557567 1.9944259
differ -0.4858036 1.5483994 -0.8717215 -1.5590196 -1.1349244 -1.5697291 0.008917161 0.275676 -1.5693624 0.0838946 -0.62493443 -0.15996747 -1.3194554 -0.3186306 0.49799556 -0.39471745 0.2607495 0.017504526 -0.6704862 0.57527524 -1.0827997 0.511681 0.70739007 0.912425 0.3498094
given -0.39976507 0.5968194 0.0029568432 -2.404349 -1.4190608 -1.942621 0.5909514 -0.035591103 -1.8596526 0.5787878 0.88764715 0.957385 -1.2545004 -0.76655215 0.8018146 -0.10805928 0.14679137 -0.3262427 -0.92408645 0.72137725 -0.1284617 1.7058812 1.481996 0.60121155 -0.21112022
show -0.7416584 1.5400745 -1.1528054 -1.4855908 -0.332802 -1.6911422 -0.7207254 1.6472507 -1.9944184 0.012076953 -1.4564755 -0.6201622 -1.0119786 0.5111717 0.8562457 -0.6844008 0.36837256 1.2852257 -0.65225214 0.80781657 -1.9669592 0.1754911 0.12862691 1.3881552 1.6411663
problem -1.0937179 1.5593663 -0.105115585 -1.3954096 -0.9841666 -2.134181 -0.60608643 1.5661545 -1.3439066 -0.24053669 -1.1636922 0.05546393 -0.6454277 -0.35286784 0.29317802 0.056473 0.39195013 1.4595171 0.30668017 0.9349182 -1.9723965 -0.58695817 -0.68527365 1.6327926 0.34543172
approxim -1.1619341 0.3464968 0.13123481 -2.6383781 0.038804855 -1.8341439 -0.35408363 0.622959 -1.7897964 -0.01607272 -0.8010295 0.18607275 -0.9442146 0.48251492 0.47449425 0.46305662 0.4489928 1.3375659 0.29694033 1.5710938 -1.642806 0.29239836 0.14000395 0.9664866 -0.2894891
method -1.2496649 1.6990781 -0.6044861 -1.3712462 -0.8906381 -2.1032507 -1.0832163 2.1274016 -1.534646 -0.54657716 -1.5882595 -0.13768056 -0.5375793 -0.0060833707 0.008636795 -0.17305532 0.21354632 1.4344605 -0.1452909 1.3692877 -2.0346296 -0.4135189 -0.95804113 2.1453674 1.0110543
comput -0.704245 1.2687464 0.103834696 -2.2916503 -0.6086679 -1.5537819 0.04133007 -0.033975013 -1.4955221 0.080374785 -0.42474476 0.4149245 -1.1671193 -0.4734963 0.3580376 0.35908487 0.22759725 0.6358351 0.26705506 0.9327712 -1.090163 -0.026630603 0.4738922 0.5061446 -0.44240472
probabl -0.32718885 -0.29314432 0.43568593 -3.2189925 -0.8896137 -1.9048096 0.6488075 -0.9067866 -2.1874123 0.42770487 0.88470113 0.9576516 -1.4703181 -0.41814965 0.8554285 0.3989525 0.14772592 -0.42534766 -0.70046914 1.146891 0.09992271 2.1521192 2.1342092 0.018125726 -0.7679974
neuron -0.7170829 1.6925098 -0.03322238 -2.1692345 -0.3487515 -1.6603857 0.35300618 -1.5452849 -1.9643619 0.23466241 -0.7643927 -0.59533924 -2.1033592 -1.4583172 1.0267522 0.6776441 0.30935934 -0.12051008 0.26841986 0.21431585 -1.663936 -0.704463 1.6096389 0.5963979 -1.3760517
exampl -0.23010322 2.1293898 -1.0309119 -1.39399 -1.8597128 -1.7323998 0.16580358 1.0633976 -1.6719556 0.47524455 0.14851746 0.26988918 -1.1701909 -0.92472273 0.5416172 -0.85151696 -0.0051823515 -0.15858491 -1.3617072 0.45288125 -0.5399476 0.9536727 0.6653745 1.4207499 1.3680003
error 0.39648739 1.4653618 -1.8175002 -1.876249 -1.1120888 -1.9036558 0.1182174 1.5334446 -2.3172195 0.16001314 -0.549101 -0.1615637 -0.794342 0.69626147 0.9274477 -1.1845051 0.40213832 0.14729835 -1.5071697 0.87671936 -0.6583694 2.3038688 0.6945294 0.73846155 2.1584156
case -0.84050614 0.88093555 -0.45002332 -1.8430705 -0.8302622 -2.06703 -0.105977856 0.8629991 -1.6418692 0.28165236 -0.54294264 0.267909 -1.2524797 -0.43927032 0.94460887 -0.15435281 0.36433026 0.4749232 -0.3927489 0.7670049 -1.3054117 0.5311448 0.3605361 1.2035605 0.23377559
variabl -0.77087057 0.9418617 0.07947294 -2.807571 -1.506536 -1.4252063 0.5250973 -1.5407343 -1.4177089 0.4539767 1.0677137 0.21855515 -1.9578847 -1.4225986 0.4822734 0.3442409 -0.04582472 -1.1559597 -0.6355034 0.8292196 -0.35608992 0.6667589 1.7424451 0.9845449 -1.4156206
perform -0.74392676 2.4051654 -1.2614834 -1.0934988 -1.0816376 -1.9852519 -0.89538455 2.1643627 -1.6008253 -0.2623634 -1.8669326 -0.34357738 -0.64890397 0.20976515 0.21421233 -0.72097063 0.2885058 1.4423676 -0.50307554 1.0793502 -1.9956989 -0.18175396 -0.7088323 1.80841 1.65456
vector -0.33991975 0.4765208 0.15248853 -1.9530089 -1.7137237 -2.8102357 0.45605883 0.95173573 -1.5441153 0.38241097 2.033313 1.0833132 -1.427688 -2.8964689 1.7513193 -0.058857236 0.12374226 -1.2661874 -1.2495074 -1.0663745 0.8764694 1.5579834 0.5719888 1.3755434 -0.36746877
class -0.50722766 1.216419 0.09690884 -1.9018321 -1.817072 -1.8576794 0.69924396 0.30185834 -1.4231268 0.6006382 0.48279452 0.6285839 -1.5001712 -1.4137598 0.7394165 0.063539796 0.14801796 -0.07671843 -0.8776605 0.7192204 -0.6726763 0.65651757 0.7187527 0.8950258 0.013358458
inform -0.73283446 1.8162662 -0.61277544 -1.6977551 -0.7272309 -2.2491262 -0.105043486 0.104441375 -1.8918467 -0.4117998 -1.081292 0.124319166 -1.1759454 -0.7466685 0.55723107 -0.14819425 0.047872487 0.6091795 0.28945413 0.18521073 -1.384707 0.105511084 0.45591667 0.58648574 0.017981881
space -0.5539932 1.3616087 0.7535576 -2.0624156 -1.3749491 -1.9880174 0.6990335 -0.5015726 -1.6267623 -0.094225556 0.8653385 0.60329056 -1.4934548 -1.8904749 1.2364131 0.5435043 0.076088294 -0.30199173 -1.1384343 -0.73261344 0.016693352 0.5747831 1.4624836 1.4346278 -0.9370158
sampl -0.3236855 0.8566128 -0.5662744 -2.3423717 -1.1745908 -1.7408991 0.08653148 0.8909715 -1.7359514 0.38864884 0.4385886 0.5856492 -1.0173992 -0.16203049 0.5985558 -0.27623382 0.17185763 0.012065987 -1.2793635 1.1804061 -0.29213572 1.850499 0.93472505 0.98347634 0.5318266
also -0.8329579 1.1904905 -0.5160118 -1.7093166 -0.62329113 -1.9662875 -0.2634583 0.8263752 -1.7058396 0.09961378 -1.0373209 0.17928697 -0.98701286 -0.21000126 0.7166716 -0.20168741 0.26521516 0.759458 -0.087781064 0.7523828 -1.4538811 0.14170283 0.3011168 0.9690556 0.38308638
featur -0.38678297 2.3519435 -0.15311716 -1.2921382 -2.1072285 -1.8532287 0.16569321 0.032381047 -1.6622959 -0.47950053 0.7613962 -0.15336008 -1.6136518 -2.0439463 0.60112137 0.040433645 -0.059820887 -0.7174728 -1.69758 -0.7548889 -0.17580059 0.608144 1.1354175 2.0238018 -0.032750107
imag -0.8211233 1.7920668 -0.6842181 -1.445569 -1.5326763 -2.05309 -0.05031127 0.7255729 -1.4716156 0.43420488 -0.3918366 0.19766667 -1.4441063 -0.91020465 0.6879742 -0.48687276 0.18134663 0.04790462 -0.7489728 0.5217136 -1.2944402 0.27756068 0.5032313 1.5109303 0.6894618
system -1.1963003 1.5615935 -0.002488926 -1.5956968 -0.41813123 -1.7570214 -0.090186186 0.28895533 -1.2600156 0.1391001 -1.4628747 0.2088044 -1.0360479 -0.4660271 0.652775 0.2570906 0.09315996 1.0665599 0.70647925 0.581857 -1.9642555 -0.9839016 0.016993567 0.93168604 -0.33470342
condit -0.6926589 0.42820686 0.089469425 -2.6124628 -0.82950544 -1.7946635 0.19521526 -0.12539919 -1.822485 0.44032428 0.22920725 0.62060773 -1.562447 -0.47160044 0.68319696 0.051662683 0.093162246 0.08733089 -0.29719922 0.87057126 -0.57976496 1.1441597 1.314354 0.34662867 -0.3860122
point -0.3088132 1.4025303 -0.19468316 -2.1556268 -1.3911121 -1.922712 0.44300085 0.74730706 -1.6610698 0.55767006 0.16038662 0.908763 -1.1937636 -0.6471356 0.8077817 -0.29299518 0.28814846 0.32587406 -0.8469681 0.30366057 -0.3503075 1.387429 0.9535388 0.5059373 0.29974633
weight -0.15684327 1.3485881 -0.3819929 -2.6908097 -0.80428326 -1.782533 0.34975603 -0.7443272 -2.071184 0.17365952 0.5249105 0.29788652 -1.5938563 -1.1873074 0.7410711 0.02800541 0.16387133 -0.5020614 -0.47107685 0.4506561 -0.5061678 0.8783357 1.4261314 0.5135343 -0.6306367
approach -1.3057934 1.2753816 -0.57411975 -1.5527041 -0.7795002 -2.1343083 -0.9587431 1.7234311 -1.5129853 -0.3125767 -1.6102592 -0.08663197 -0.6928955 0.16598488 0.065845564 -0.14456402 0.3256448 1.3506597 0.12556165 1.4603562 -2.2391586 -0.44813552 -0.7971581 1.8004838 0.60639775
gaussian -1.8350933 -2.1646998 -0.19357456 -3.237282 0.20624402 -2.3685365 -0.048772298 -0.9352627 -1.9472253 0.52211726 0.4622868 0.33780688 -1.8041272 0.06552132 1.7841296 0.3868601 0.73026204 -1.1742115 0.01280265 1.4364932 -0.8871601 1.712944 1.528209 0.9706232 -2.0669534
mean -0.8340982 -0.51432586 -0.515448 -3.4489634 0.11559748 -2.4023764 0.17135732 -0.68895376 -2.4893365 0.38815832 0.44011623 0.54188836 -1.7498821 0.14299698 1.6170448 0.26382107 0.6124033 -0.699424 -0.34911516 0.8659896 -0.6443046 1.9589692 1.7563016 0.04331036 -0.8745842
nois -1.2440315 -0.6376948 -0.40368995 -2.1362295 0.17362005 -2.1970978 0.0055779396 -0.39035362 -1.8486044 0.50703245 -0.45375198 0.27995917 -1.4642781 -0.07740656 1.9818811 0.2638544 0.5170301 -0.4769189 -0.032730788 0.5267078 -1.2382689 0.7637058 1.228729 0.50249696 -1.2858865
test 0.066312015 2.945866 -2.074143 -1.2398944 -2.5827239 -1.9180771 -0.070518054 2.2245157 -1.7740822 0.59091645 -0.41230753 -0.046382014 -0.8713748 -0.4131261 0.25752893 -1.5236641 0.15719037 0.12190052 -2.1280756 0.87290525 -0.8566609 1.5761147 0.18002665 1.9818816 2.6460319
base -1.1114577 1.9007185 -0.4897728 -1.4356159 -1.2610983 -1.8787321 -0.7505 1.3964114 -1.4241354 -0.23792736 -1.2440703 -0.21502393 -0.67490643 -0.26491997 -0.25668535 -0.2204997 0.18794513 1.1394303 -0.18078692 1.272121 -1.9608259 -0.34010634 -0.6613718 1.998755 0.7907735
observ -0.8412904 0.6229052 -0.0071754 -2.2877953 -1.1188766 -1.8304795 0.37432972 -0.35347036 -1.5424447 0.5913951 0.31818363 0.608343 -1.3966599 -0.84338194 0.7670325 0.07303996 0.068273105 -0.3059669 -0.5156594 0.8079385 -0.65171015 0.8801139 1.2883761 0.9347845 -0.6684449
follow -0.7207769 0.5412086 0.42226633 -2.1021593 -0.56529194 -2.114387 0.4015329 0.92510504 -1.697808 0.5218177 -0.20641577 1.0092666 -1.0707303 -0.7142809 1.0901347 0.06806134 0.21642038 1.1485611 -0.13847114 0.60493803 -0.917391 0.7762226 0.4824186 0.31927696 0.013739447
predict -0.46844038 1.3483096 -0.8783652 -1.8960267 -1.1936321 -1.9488366 -0.20135759 0.7755637 -1.7069733 -0.06132022 -0.48521754 0.05765217 -0.83883375 -0.020667898 0.21481195 -0.24085346 0.2016816 0.3844244 -0.5140035 1.2604578 -1.2350835 0.8676978 0.18976258 1.2840421 0.6706474
optim -0.6185889 1.0724854 -0.38181123 -1.9140023 -0.6878307 -2.3263857 -0.21389364 1.2758617 -1.9885218 -0.23404935 -0.849208 0.47550273 -0.6866217 0.39027995 0.4224094 -0.22312412 0.42011186 1.2418709 -0.22688113 0.9278276 -1.1558717 0.88392115 0.310795 0.63035274 0.48601183
first -0.6028002 1.5463066 -0.4786593 -1.9347496 -1.0860621 -1.7382817 -0.01489185 0.7100883 -1.5996048 0.20041232 -0.44091603 0.18714221 -1.257659 -0.66593146 0.40029812 -0.2681007 0.11284336 0.50058204 -0.6936502 0.6508623 -1.1683753 0.3344609 0.52059644 1.109683 0.5150468
linear -1.0205619 0.8930801 0.20368235 -1.7746187 -0.71527463 -1.8618295 -0.008174079 0.23578846 -1.3889432 -0.011249276 -0.2114934 0.24834421 -1.0098631 -0.9334681 0.6789673 0.36935812 0.34019694 0.4501009 0.04888369 0.56083554 -1.0915216 -0.19709332 0.2199995 1.446465 -0.6515552
defin -0.48956433 0.5977266 0.66427237 -2.4120216 -0.9211886 -2.1437178 0.9948894 0.034196123 -1.87378 0.5007469 0.5890094 1.1686074 -1.3856335 -1.2860487 1.1868508 0.28161833 0.14097749 0.46394223 -0.5423524 0.2049908 -0.1612245 1.2541269 1.2702041 0.31981656 -0.61592466
obtain -0.61543846 1.0857674 -0.41064265 -2.1427112 -0.6326621 -2.268349 -0.0683208 0.9735626 -2.15333 0.008954685 -0.6337668 0.54744214 -1.0756077 -0.123947285 0.807453 -0.23281841 0.34338397 0.96439135 -0.38641205 0.67923707 -1.0629524 0.9271907 0.7616653 0.5942409 0.5805015
process -1.4972144 0.93788725 -0.27897388 -2.07721 -0.47202134 -1.9946077 -0.20915887 -0.09779754 -1.4672743 0.2791199 -1.0324327 -0.003460071 -1.4902279 -0.459634 0.8345633 0.22615534 0.22857875 0.30836052 0.56777424 1.0267435 -2.0277119 -0.5348144 0.2880586 1.3164952 -0.8617574
order -0.55798477 1.2183567 -0.46328044 -1.8740103 -0.69707304 -1.7643557 0.009866421 0.3109631 -1.5589827 0.12108707 -0.5516027 0.19787179 -1.200084 -0.47189116 0.5264901 -0.1015746 0.2151367 0.45240745 -0.28777626 0.46330252 -1.0902064 0.3673887 0.6751544 0.6141346 0.041835
depend -0.3908606 1.0709028 -0.07599241 -2.1009626 -0.6874409 -1.6923677 0.48061636 -0.37705666 -1.6922765 0.37505946 0.026188115 0.42969432 -1.4755938 -0.79859143 0.9869246 0.10869363 0.19443874 -0.017392494 -0.344122 0.34267676 -0.5476554 0.6732056 1.2823029 0.22857943 -0.55652994
term -0.54249126 0.29804957 0.050750386 -2.1259098 -0.28050128 -1.9583296 0.531112 0.22616345 -1.7003706 0.23899332 -0.15192044 0.7865156 -1.1520784 -0.43207955 0.92206585 0.1067361 0.2647817 0.5525059 -0.06808138 0.35102838 -0.62719566 0.87438124 0.93144584 0.01720628 -0.4019657
node -0.3406409 2.2895958 0.24845421 -3.2477634 -1.3372118 -1.025357 0.80286884 -1.7129095 -1.9847624 0.6429205 0.8249571 0.031067383 -2.6593244 -1.9990975 0.14171752 0.17976084 -0.14936377 -0.66115546 -0.5042127 0.66184914 -0.888584 0.32358405 2.084825 0.15862064 -1.1534369
compon -1.2959106 0.28079024 -0.20210086 -2.1832752 -0.5457247 -2.022999 0.058681056 0.09906023 -1.6920826 0.23544627 -0.12761031 0.4495433 -1.8009073 -0.75796044 1.3828793 0.041475337 0.3710656 -0.15703987 -0.27123892 0.24382758 -0.8160025 0.58776027 1.0037606 0.8944038 -0.79056966
ii -1.3636279 -1.0661317 2.3568923 -3.8825114 -0.5643053 -3.961171 2.5636303 2.5884383 -2.1006813 2.9268107 -0.24533895 3.2747233 -2.4935145 -1.9558512 4.658961 1.6081116 1.1861286 2.4857266 -0.11344675 0.559704 -1.45433 0.15712896 0.42307326 -1.747377 -1.4671564
output -0.2556287 1.5785956 -0.090203255 -2.364054 -1.1263322 -1.1969976 0.7950484 -1.7797595 -1.6600963 0.25760823 0.71947443 -0.19819455 -1.9545714 -1.7675308 0.75526595 0.3301062 0.059681438 -1.2379407 -0.6663456 0.020306217 -0.47284016 0.21077423 2.0039523 0.55740887 -1.0882019
present -0.9832285 1.6856418 -0.5923687 -1.3126856 -0.7822497 -1.7589868 -0.81657684 1.2948405 -1.4301673 -0.11768879 -1.3730495 -0.2634373 -1.0050354 -0.251889 0.3198486 -0.24987742 0.18130957 1.2706132 -0.14512351 0.87719953 -2.0353606 -0.65167487 -0.38219014 1.6599681 0.8490144
experi -0.8254657 2.1435754 -1.141173 -1.27169 -1.248615 -2.0310311 -0.62580043 2.048765 -1.6093256 0.19169344 -1.4789916 -0.093680605 -0.8724125 -0.1481408 0.41465202 -0.6714982 0.24892044 1.2550571 -0.7119061 1.0099344 -1.8778235 -0.07775878 -0.39557815 1.6974418 1.4394842
rate -0.28924847 1.563976 -1.0199573 -1.9489279 -0.42310637 -2.1385696 -0.17684335 0.7597978 -2.4334905 -0.071736805 -1.0310283 -0.068049826 -1.0741048 0.23323886 0.9642791 -0.33564582 0.39789176 0.71714884 -0.32024953 0.5964931 -1.1899896 0.98604983 0.7333789 0.48997 0.94074106
densiti -1.1840614 -0.9428632 0.3353906 -2.895771 -0.34213495 -2.0930815 0.14328502 -0.22812518 -2.0864134 0.29465187 -0.042872857 0.52467597 -1.3071063 -0.03120778 1.4729551 0.39319178 0.44940883 0.13232882 -0.096268736 1.1344216 -0.8782786 1.3104348 1.3691113 0.64877 -1.0738434
select -0.72994876 2.1211903 -0.61032176 -1.5559995 -1.5987186 -2.0192914 -0.29678273 0.8115934 -1.6175537 -0.0023967198 -0.48907027 -0.16413574 -1.2320861 -1.1006476 0.28412682 -0.2949162 0.10932362 0.23814157 -0.87107164 0.5425978 -1.3755003 0.17730582 0.26464212 1.9915515 0.5374339
bound -0.16915435 0.9052805 0.07139089 -1.9281993 -0.34159467 -2.0499876 0.29401746 1.377423 -1.7567674 0.22019988 -0.49803206 0.7075175 -1.008109 -0.24107759 1.080613 -0.09637252 0.35815647 1.2698194 -0.42270535 0.42513782 -0.6582373 0.9648608 0.41523793 0.13222414 0.468956
matrix -0.73073685 -0.36905423 0.31397483 -2.8736308 0.1482472 -2.720724 1.0273283 -0.68212175 -2.3491063 0.62780553 0.95814997 1.5307914 -1.8026316 -1.3562846 2.1670127 0.3861413 0.5576402 -0.35705176 -0.1973347 -0.36282077 0.09335307 1.4483563 1.6409909 -0.31681478 -1.5055815
map -0.5854587 1.4342489 0.1480325 -1.6209146 -1.0359346 -1.6125578 0.34288788 -0.24566635 -1.4616889 -0.055611584 0.16079521 0.18543229 -1.3257608 -1.1677752 0.8149365 0.23739173 0.06834026 -0.09046458 -0.69472706 -0.15883608 -0.5543916 0.24367502 1.1055297 1.0685973 -0.35100418
local -1.0578799 1.5068822 -0.39307624 -1.6225283 -0.49173614 -1.95273 -0.28549325 0.69607735 -1.5689192 -0.0994592 -1.3585591 0.034035128 -1.1656792 -0.25727838 0.55341965 -0.09343761 0.22731885 0.9876168 0.35853603 0.6633958 -1.7452872 -0.36945477 0.0486708 0.9595806 0.057459686
prior -1.024593 -0.45821163 0.15895405 -2.9152682 -0.38242063 -2.30713 0.39398494 -0.30166662 -2.0180142 0.48379242 0.15061095 0.8417875 -1.5745391 -0.27146074 1.1759008 0.25655803 0.32037154 -0.0012346847 -0.20208156 0.9598457 -0.69788724 1.2852422 1.4812592 0.22453922 -0.9812783
averag -0.19860268 0.9255899 -0.83081514 -2.0498538 -0.76228267 -2.0806704 0.23901019 1.0068661 -2.0045862 0.2972746 -0.43758732 0.5093748 -1.0044318 0.06862534 0.89919937 -0.42235637 0.29592848 0.41242218 -0.8076116 0.7544674 -0.72890073 1.4509915 0.8227191 0.25879222 0.84723467
shown -0.5365792 1.5137393 -0.7985005 -1.5174421 -0.4669823 -1.5250373 -0.41605067 1.001863 -1.8085059 0.0960722 -0.8246136 -0.45752946 -1.1549414 -0.055239905 0.8093629 -0.5309144 0.2203705 0.73881036 -0.71907204 0.4451277 -1.4799858 0.18965383 0.51125264 1.2083658 1.1977444
kernel -0.5544974 1.1399509 -0.19818696 -2.049474 -0.810588 -2.3096824 0.11393519 0.45114002 -2.004091 -0.08812633 0.02174772 0.4876347 -1.1216376 -0.90039533 1.0456525 -0.052855797 0.27093393 0.21334831 -0.7403958 0.022322657 -0.5119634 0.83558846 0.8862662 1.178411 -0.029114982
correspond -0.36999017 1.2529814 -0.21560368 -2.269707 -0.9938203 -1.8175056 0.5929802 -0.4006494 -1.8752702 0.36219364 0.29206103 0.39735577 -1.671713 -1.0609931 0.98469174 -0.06539428 0.14731933 -0.37058255 -0.7341072 0.03406549 -0.46269563 0.9114282 1.5102184 0.4884499 -0.3016084
repres -0.5023754 0.97806543 0.1368682 -2.4425397 -1.0225128 -1.526559 0.50645065 -0.7359495 -1.5658944 0.43895838 0.63239646 0.30386665 -1.7513303 -1.2339332 0.8182998 0.2917225 0.045411028 -0.45609254 -0.6213728 0.31959534 -0.51362574 0.70108646 1.4653369 0.73129016 -0.7968814
size -0.21059519 2.2048302 -0.7801545 -2.0002246 -1.3706547 -1.8244137 0.23122701 0.89951336 -1.962993 0.28139833 -0.18438773 0.1632962 -1.4073703 -0.6461232 0.70116264 -0.5612406 0.29977602 0.42283124 -1.0133256 0.4938492 -0.7987148 0.9710937 0.83612573 0.9353588 0.5788522
activ -0.5947671 1.6529292 -0.21652919 -2.245871 -0.68761986 -1.5666018 0.29753643 -0.69223434 -1.6571275 0.22186825 -0.19651505 -0.045628488 -1.754744 -1.1449109 0.77633184 0.30675784 0.08139954 -0.16749595 -0.08300344 0.3555889 -1.1395622 -0.12798676 1.0973899 0.665647 -0.5789003
measur -0.24281459 1.4150501 -0.54010206 -1.4990965 -0.981003 -1.7510351 0.21313393 0.45778823 -1.577206 0.01943522 -0.3260349 0.20810948 -0.90773076 -0.4259229 0.60513204 -0.21672298 0.15146717 0.33329985 -0.54412526 0.4531182 -0.67049474 0.7105679 0.6186152 0.7407504 0.38526568
assum -0.75771135 0.16518335 0.16080974 -2.4446175 -0.6122116 -1.9687048 0.5138516 -0.38932106 -1.7435966 0.53316456 0.39844915 0.74886614 -1.5899273 -0.81622213 1.1999007 0.21827598 0.28156725 -0.143656 -0.27612758 0.5349996 -0.50878507 1.0734403 1.2868754 0.31985617 -0.9525731
solut -0.7408298 0.65884125 0.1803201 -1.7526705 -0.47495705 -2.2985528 0.0058382507 1.3636562 -1.7220842 0.13765073 -0.7894013 0.8138286 -0.9741618 -0.12035514 0.8985406 -0.109374285 0.45634863 1.3803428 0.1268045 0.41605163 -1.0589652 0.7578601 0.32086793 0.33461633 0.3681683
may -0.8190148 1.0176914 -0.21264632 -1.9488108 -0.36618495 -1.9494339 -0.08697095 0.26574972 -1.6748868 0.05847551 -0.8080455 0.15921879 -1.2769234 -0.3199305 0.80324095 0.103106625 0.31455752 0.6408902 0.15928304 0.72689515 -1.4044057 0.06587975 0.5180679 0.588137 -0.27693924
consid -0.80529374 0.9280057 0.12656656 -1.8249741 -0.974663 -1.6944283 0.055765405 0.36890697 -1.3340883 0.28988737 -0.27412972 0.27158356 -1.27192 -0.8292605 0.6254507 0.14479923 0.16826195 0.50817186 -0.25943115 0.7441423 -1.186464 0.15070184 0.38306937 1.120867 -0.20348524
sinc -0.6699305 1.022069 0.08054243 -2.2138665 -0.7087129 -2.163584 0.3946287 0.3778201 -1.8270109 0.31131405 -0.3057977 0.70455086 -1.3853253 -0.77130777 1.1003066 0.15687267 0.32529652 0.68492454 -0.19457673 0.42463866 -0.9105188 0.608706 0.88789517 0.3944154 -0.3214651
log -0.32950732 -0.38284206 0.90506124 -2.8258708 -0.5016982 -2.957303 1.6380584 1.0163388 -2.6979818 0.7390026 0.05494673 2.2236555 -1.2407682 -0.6486978 1.5016505 -0.21316843 0.0029680422 1.2640736 -0.6919118 0.5684093 0.32646555 2.4242463 1.8177817 -1.2782868 0.2981409
effect -0.7883051 1.7288569 -0.5863009 -2.0338507 -0.5158993 -2.1437676 -0.27859637 0.62273425 -1.9911286 0.10186494 -1.1656878 0.10377602 -1.3561994 -0.32006165 0.70586926 -0.16602676 0.2809709 0.90425915 -0.0057462086 0.6822091 -1.6527884 0.002809084 0.49988073 0.8950087 0.32848087
posit -0.30362692 1.0423483 -0.17158687 -2.3193173 -0.8002699 -2.1366854 0.68885374 -0.12915678 -2.0255764 0.34800512 0.37244013 0.74013096 -1.5408008 -1.0402321 1.231302 -0.088829234 0.15549034 -0.06474803 -0.7059332 0.023466252 -0.33794627 1.2237213 1.4337473 0.26770952 -0.22515382
factor -1.0227482 0.5599075 -0.10954459 -2.5965035 -0.46071103 -2.0918732 0.15716794 0.034387168 -1.9953554 0.25666952 -0.29025063 0.45337027 -1.7256118 -0.5287609 1.1937022 0.13082342 0.31531578 0.2608047 -0.08682765 0.6895544 -1.0608455 0.69149774 1.0300419 0.55797136 -0.66077024
howev -0.8855081 1.3347316 -0.28426966 -1.8386724 -0.5709372 -2.0751107 -0.20620078 0.8008823 -1.6875867 0.034408465 -1.0440422 0.24835911 -1.107888 -0.28871024 0.7297305 0.0036792408 0.29498294 1.0142106 0.021332914 0.71722156 -1.5437268 0.008872706 0.2730762 0.86268103 0.11817861
form -0.78221035 0.6063344 0.21646366 -2.3734012 -0.5966706 -1.987235 0.33716524 0.042002294 -1.8226095 0.33179903 -0.13873518 0.6362937 -1.3684531 -0.6770395 0.8244905 0.19818738 0.25842103 0.5339755 -0.09227265 0.6920815 -0.8791801 0.64753187 0.9480181 0.5151685 -0.557437
neural -1.429405 2.1145635 0.09600646 -1.6841185 -1.2714486 -0.88349444 -0.34906176 -0.24696913 -0.80151504 0.02979783 -0.95232403 -1.0923507 -1.711484 -1.4381232 -0.4772287 0.5795636 0.021809923 0.4901562 0.75174624 0.9777239 -2.6915634 -2.0207686 -0.4448625 2.19953 -0.75204986
respons -0.61543036 1.5040437 -0.5348193 -2.2801435 -0.5828848 -1.9359466 0.13751973 -0.25999507 -1.9606507 0.20079023 -0.634963 0.12590599 -1.7479528 -0.67744774 1.1099997 -0.08814089 0.13732307 0.08340407 -0.240646 0.31652853 -1.2127491 0.3294876 1.3034387 0.5439531 -0.11427961
step -0.42725635 1.3815453 -0.3225975 -2.1735322 -0.87969565 -1.5233952 0.1640762 0.19380955 -1.7013425 0.12043589 -0.10873325 0.37159818 -1.0800772 -0.3571922 0.39860559 -0.08169625 0.15995158 0.35253203 -0.40565884 0.74758726 -0.7043494 0.6981491 0.8624515 0.40016222 0.077606
xi -0.6156769 0.7070785 1.2869053 -2.3911102 -1.3609291 -3.1533065 2.262446 -0.33298463 -2.910938 1.0216992 1.900127 2.640321 -1.7882476 -2.9269176 2.0624363 0.2891011 -0.55214435 0.44750714 -0.84815127 -0.7877261 1.1512123 2.7222888 2.2933922 -0.1746898 -1.2179707
similar -0.8489358 1.7299488 -0.44099742 -1.6885602 -0.8632785 -2.0182889 -0.3313924 1.0789758 -1.6991817 0.038117856 -1.0926424 0.12388997 -1.0649328 -0.38798496 0.45993987 -0.26473856 0.17435345 1.1275904 -0.2830177 0.8170677 -1.6452157 -0.039089177 0.005107626 1.3199784 0.68647856
work -0.88460267 1.7385856 -0.25363272 -1.588442 -0.8930798 -2.0841393 -0.33776715 1.4894134 -1.4331708 0.18805616 -1.0612111 0.29962784 -0.9859075 -0.7483566 0.5312857 -0.19389838 0.15490337 1.3017042 0.0030992208 0.6930059 -1.6628051 -0.31505018 -0.32559237 1.1780487 0.5664372
unit -0.59635454 1.8179938 -0.19508958 -3.540909 -1.4665364 -1.3998007 0.73851544 -1.718387 -1.8957877 0.34870538 0.90910417 -0.07224368 -2.5837414 -1.7172388 0.57264256 0.3670569 0.0075261556 -1.207753 -0.54402906 0.55733377 -0.74210596 0.26561713 1.9566205 0.50606567 -1.1052557
independ -0.9487727 0.40619507 -0.1411627 -1.8803117 -0.7281811 -1.7245092 0.12442076 0.10662825 -1.3551813 0.2728701 0.09482832 0.3836029 -1.431125 -0.67429745 0.97889686 0.020454701 0.2659865 -0.18442875 -0.35482967 0.4105771 -0.65364367 0.68658465 0.7820784 0.91559255 -0.52536684
current -0.5890038 1.2425305 0.0021644935 -2.3768837 -0.72187966 -1.968677 0.4447014 -0.5652118 -2.063395 0.3309279 -0.12556909 0.33551115 -1.6809435 -1.163814 1.1517358 0.23538214 0.19136906 0.013583336 -0.20242399 0.25260147 -0.9654202 0.35598725 1.4862219 0.32461938 -0.8474902
appli -0.99557734 1.7083575 -0.31042257 -1.7075044 -0.9069522 -2.113168 -0.38734552 1.1062187 -1.7319403 0.075001106 -0.96481466 0.09132705 -1.0838569 -0.56423986 0.550183 -0.11245959 0.2634369 1.0735425 -0.15018296 0.7905179 -1.6535057 -0.16765688 -0.024838798 1.4243053 0.5120732
let -0.51906264 0.5870026 0.5736779 -2.532932 -0.7842311 -2.1558642 0.9217496 0.056705873 -1.8245522 0.69416255 0.63820255 1.2171242 -1.5520588 -1.4776714 1.4776863 0.2441743 0.107164286 0.31351936 -0.6122553 0.069454044 -0.24488619 1.2105148 1.1952438 0.20032008 -0.6928782
larg -0.5383346 1.6214706 -0.47415426 -1.5211817 -0.90664315 -1.7096832 -0.21057251 0.7692143 -1.5095813 0.0042567872 -0.5352517 0.082371704 -1.0387632 -0.41592705 0.4628166 -0.21871261 0.29580992 0.583945 -0.37799785 0.52639484 -1.0700096 0.26351622 0.26459673 1.0015664 0.32695022
likelihood -0.50062853 -0.34118783 0.04507232 -1.8050995 -0.48527336 -1.758671 0.46810383 0.8323978 -1.8014776 0.28684038 -0.14077875 1.0792845 -0.55127674 0.2098329 0.56331336 -0.29882416 0.06617043 0.57841635 -0.7776533 0.8745017 -0.026859961 1.7590461 1.0823863 -0.15995646 0.3475757
analysi -1.4977071 1.1585343 -0.4333585 -1.8522705 -0.55414075 -2.08991 -0.5593082 0.8891846 -1.6751566 -0.071679875 -1.114104 0.042574625 -1.3939167 -0.4207118 0.78935367 -0.019678207 0.3115403 0.7581534 0.08041818 0.7127906 -1.7726179 -0.2558376 -0.007947194 1.5746468 0.012932346
see -0.6643661 1.5817214 -0.48157716 -1.6987233 -0.59564364 -1.8493165 -0.14842503 0.9458571 -1.7289933 0.14203502 -0.9056686 0.105063654 -1.1004453 -0.33184773 0.81067276 -0.34549674 0.23556493 0.8984775 -0.37438706 0.5043545 -1.4088387 0.10910178 0.40557143 0.9454762 0.7754712
paper -1.3035922 1.7022502 -0.21744142 -1.5219755 -0.6804271 -1.9513236 -0.72772294 1.4201827 -1.456844 -0.1120045 -1.6246893 -0.12459752 -0.90524775 -0.47704777 0.2673429 -0.08546947 0.12783758 1.6411825 0.23477893 1.0768769 -2.371974 -0.88246256 -0.6549804 1.6509722 0.6398849
note -0.64490366 1.0211289 -0.122722566 -2.0838964 -0.6262337 -2.1159005 0.24992691 0.5378161 -1.8677622 0.25669035 -0.47838834 0.61747724 -1.3361562 -0.5887801 1.0371522 -0.030081505 0.30667764 0.64260066 -0.19393958 0.43896133 -0.98261905 0.6132393 0.8166902 0.3916819 -0.08864996
sourc -0.95652425 0.5363557 -0.36473417 -1.7041966 -0.42112625 -1.7410412 -0.02343921 0.09526094 -1.5537158 0.14955173 -0.53517133 0.2156146 -1.1498444 -0.16482127 1.0516429 -0.00827418 0.3774351 0.14313793 0.027690377 0.456882 -1.0459088 0.31006214 0.7595586 0.46659297 -0.3158394
task -0.9277615 2.274087 -0.71188635 -1.4997816 -1.2579017 -1.8768044 -0.4322565 1.3383347 -1.5043356 0.047955982 -1.1424342 -0.09492688 -1.0955688 -0.46429008 0.20074344 -0.3724033 0.20401151 1.037892 -0.23889226 0.9495588 -1.7969717 -0.43589222 -0.25606948 1.5777332 0.921133
mixtur -1.7679676 -0.9095672 0.2741443 -2.8560648 -0.2903765 -2.0315306 -0.15555464 -0.15777245 -1.7644178 0.622822 -0.18116638 0.22296144 -1.7126464 -0.17031965 1.541351 0.45097747 0.5205879 -0.09429394 -0.09366774 1.2512519 -1.425949 0.6507834 0.97474355 1.2455058 -1.3836219
section -1.1113755 1.2916113 -0.30480418 -1.4865527 -0.55059326 -1.8081582 -0.6597441 1.5352322 -1.4812294 -0.007806493 -1.3357402 0.112902254 -0.7380931 -0.24923986 0.35514173 -0.15001409 0.15198654 1.5798799 0.024260445 0.9667711 -1.9690909 -0.51468414 -0.39618522 1.3701751 0.82889307
pattern -0.62439084 2.1177785 -0.69577867 -1.6567569 -1.403219 -1.9543817 -0.033518467 0.59150183 -1.7281665 0.193678 -0.5527222 -0.103093304 -1.354816 -0.96154773 0.6521773 -0.19210182 0.12213399 0.22350506 -0.5897739 0.4363944 -1.3936323 0.13497332 0.50937265 1.4835093 0.622635
sequenc -0.4783365 1.5276707 -0.23955576 -2.0180905 -1.4332825 -1.608425 0.3242532 -0.099451706 -1.5041697 0.35628146 0.25025427 0.276436 -1.3496076 -1.0115486 0.645015 -0.09739741 0.025530819 -0.18610455 -0.74804395 0.52220243 -0.672393 0.66515344 1.0070682 1.1171885 0.060740236
equat -0.69756806 0.27880874 0.33769977 -2.2806342 -0.258583 -2.0734441 0.4037398 0.47635868 -1.7474692 0.43078735 -0.19425867 1.0269048 -1.176016 -0.44284624 1.1548345 0.26261714 0.36704725 0.87087345 0.15346263 0.50520426 -0.8551486 0.8246868 0.79833204 0.061650474 -0.4501955
possibl -0.5525274 1.439596 -0.21475652 -1.9460392 -1.0084314 -1.8614267 0.07652467 0.20787078 -1.6010516 0.12770638 -0.3069556 0.33403614 -1.247637 -0.68558455 0.5513437 -0.029695477 0.18244645 0.37290615 -0.37985903 0.57552415 -0.96374816 0.43690202 0.71858704 0.83816653 -0.105660364
rule -0.8680534 1.4777757 -0.22164583 -1.6200249 -0.65664864 -1.831468 -0.4792663 0.9727456 -1.5460758 -0.016274927 -0.92393744 0.081446275 -0.75717634 -0.029597485 0.13955985 0.04594514 0.26886016 1.1199117 0.033348195 1.1806774 -1.5084153 -0.22059055 -0.2904348 1.3600376 0.5964443
converg -0.7429685 1.1228681 -0.30436063 -2.0791922 -0.1938555 -1.9847299 -0.33706307 0.8923714 -1.9844625 0.011708305 -1.1492956 0.16049276 -1.0670471 0.16568787 0.64205474 -0.15421891 0.36275333 1.2278993 0.12635207 0.83610475 -1.4998126 0.48298165 0.37629482 0.51917624 0.51494193
provid -1.0003449 1.4274 -0.3705313 -1.6409578 -0.65992326 -2.0471723 -0.3986817 1.0852226 -1.5994056 -0.012901654 -1.2194442 0.13341944 -0.99838096 -0.22380215 0.54545045 -0.1471135 0.27295485 1.2117438 0.15437777 0.830331 -1.7494868 -0.20814304 -0.09717513 1.0849265 0.3897086
describ -1.0517404 1.1411546 0.028099002 -1.6380284 -0.66654986 -1.7364175 -0.32023954 0.7734595 -1.349997 0.1575309 -0.8534957 0.044898946 -1.0782458 -0.50587183 0.41867918 0.075930834 0.17097712 1.0508837 0.11391625 0.9016438 -1.727779 -0.48008707 -0.10474566 1.3333106 0.06808659
posterior -0.664395 -0.42330784 0.15077002 -2.926293 -0.47565988 -1.9367446 0.13863672 -0.27297583 -2.005235 0.24717976 0.3609039 0.7432452 -1.3252769 0.19516888 0.6033006 0.22409192 0.24650119 0.06576266 -0.365549 1.4213852 -0.56225 1.6074492 1.5421478 0.25891763 -0.51219416
represent -0.8454501 1.8134079 -0.1677152 -2.143404 -0.9784038 -1.8173283 0.02334219 0.20360602 -1.5694518 0.101614974 -0.52907586 0.07260374 -1.5537556 -0.95260173 0.59559053 0.11819752 0.08571175 0.4569113 -0.20310889 0.5760242 -1.4233565 -0.26431605 0.51109105 1.1819187 -0.10925839
denot -0.30088374 0.49090913 0.45802373 -2.5282102 -0.8410198 -2.1191635 1.1519395 -0.26961106 -1.8968441 0.7987125 1.0313857 1.2587001 -1.7233281 -1.6080444 1.6975793 0.24755731 0.14898409 -0.2186296 -0.7704667 -0.16053727 0.08389599 1.4282302 1.670146 -0.057987504 -0.9340015
dynam -1.2928923 1.1587764 -0.0051211677 -1.6657007 -0.6189371 -1.5274569 -0.38270342 0.2801369 -1.1299912 0.12458572 -1.1116741 -0.17070425 -1.1361403 -0.4691283 0.3088393 0.27392277 0.18695216 0.802274 0.5258296 1.0523393 -2.030715 -0.9078934 -0.15955476 1.5280961 -0.35613865
level -0.85100013 1.0539161 -0.33389917 -2.2643065 -0.4460931 -2.0296652 0.20378268 -0.124502406 -1.934644 0.33425683 -0.51586616 0.17765127 -1.7803407 -0.5735727 1.2457877 0.07810685 0.3465393 0.13020875 -0.09962388 0.5261483 -1.3644607 0.35519436 1.0715809 0.3787895 -0.6041978
singl -0.7063747 1.6080804 -0.32564655 -2.0465748 -0.91194737 -1.6271476 0.0061317687 0.08044848 -1.5496399 0.20152989 -0.49073088 0.011607857 -1.4102827 -0.7537653 0.5685351 -0.0067097708 0.18112724 0.25288722 -0.20752263 0.6706058 -1.2587247 0.027116297 0.6450457 0.9072015 -0.1395535
signal -0.6816978 0.88505006 -0.55580336 -1.5011702 -0.4908585 -1.5506743 0.03439634 -0.03374689 -1.4520164 0.13669439 -0.5786818 0.04573517 -1.1468359 -0.40909785 0.94985765 -0.015591897 0.27851534 0.0054496764 -0.010174938 0.30388117 -1.0577356 0.23613365 0.78551453 0.53232455 -0.17166032
correl -0.66496617 1.4181467 -0.47415376 -2.4520364 -0.62432474 -2.0873566 0.16732563 0.20536156 -2.0904412 0.22174744 -0.5293436 0.32933927 -1.6718792 -0.56548035 0.9654819 -0.10893656 0.2661853 0.46487442 -0.3597396 0.56797385 -1.2160227 0.6314761 1.0064245 0.56182235 0.034103926
new -0.84745455 1.4464967 -0.3192006 -1.6994604 -0.8940253 -1.9322422 -0.4472545 1.0949603 -1.5973626 -0.054412372 -0.8127361 0.17153987 -0.8657759 -0.44243932 0.41287908 -0.16944261 0.1870534 0.91712356 -0.19640455 0.84457564 -1.4352832 0.05987334 -0.115813054 1.328174 0.4456949
second -0.6962303 1.3900198 -0.49130267 -2.1409543 -0.75709057 -1.9846611 0.045820083 0.6085347 -1.8171324 0.24246038 -0.6686663 0.2104895 -1.422297 -0.5022132 0.7696924 -0.14774153 0.24090894 0.58054745 -0.4567777 0.5963665 -1.3598386 0.41620788 0.7090034 0.8531229 0.2745438
find -0.68345416 1.2009314 -0.24350695 -2.0551174 -0.6594637 -2.232674 0.0029156522 0.8730823 -1.9692065 0.018244505 -0.63157374 0.5250148 -1.079593 -0.2158528 0.6670659 -0.0796665 0.27577862 0.9626818 -0.1911262 0.7367531 -1.1317941 0.6498092 0.5906251 0.668358 0.26505452
connect -0.73890585 1.939204 -0.053115528 -2.4575343 -0.81350136 -1.732432 0.3457307 -0.4755147 -1.8036251 0.28027865 -0.51331776 -0.12455635 -1.948788 -1.3712243 0.6256423 0.2573133 0.14391673 0.2982104 -0.033902206 0.51482755 -1.6145496 -0.42988986 1.0953857 0.8050862 -0.6199527
cell -0.4888201 1.4339753 -0.053440742 -1.7680646 -0.44946977 -1.7927537 0.37854105 -0.1788712 -1.5848202 0.21239673 -0.5710591 0.27819827 -1.5465027 -0.95875466 1.0379679 0.1875637 0.24679217 0.3297207 -0.057369247 0.007480799 -1.0677509 -0.03917585 1.1017352 0.32371154 -0.46763176
random -0.68928885 1.0228002 -0.3117081 -2.3713086 -1.1935344 -1.6520185 0.1515271 -0.28249836 -1.5084466 0.4837931 0.3711725 0.31514198 -1.5251373 -0.8115946 0.6306235 -0.06798875 0.066333495 -0.37115362 -0.67411923 0.8918025 -0.63320965 0.92675644 1.0832715 1.111847 -0.4739078
deriv -0.78636146 0.85668963 -0.08928605 -1.8988181 -0.44746444 -1.9543735 -0.04914996 0.7210811 -1.7057303 0.12604983 -0.61936915 0.43596372 -0.9312133 -0.17673579 0.662068 -0.0039815987 0.2739121 0.9000523 -0.09936144 0.73724467 -1.1925431 0.387184 0.42397296 0.7596376 0.11950432
increas -0.373826 1.5935739 -0.65000176 -2.120669 -0.5544027 -2.03844 0.1573134 0.42087227 -2.0995986 0.12498007 -0.6267402 0.17782469 -1.3824317 -0.3899744 1.1240052 -0.3126999 0.29048315 0.39770302 -0.41614977 0.32703546 -1.0101951 0.8881445 1.0663065 0.47503346 0.14114238
svm -0.46267673 1.7634895 -0.7989256 -1.2654495 -1.387521 -2.217362 -0.4275603 1.8445244 -1.7082453 -0.0915472 -0.577521 0.20601769 -0.717368 -0.7049713 0.56069154 -0.5726184 0.19608207 0.65442747 -0.71857 0.4081833 -1.0072387 0.5180264 -0.23000361 1.7015367 1.2298553
support -0.29692015 1.0855188 0.078203075 -1.4564164 -1.2424823 -2.5773094 -0.26611882 2.044146 -1.6557937 0.2832213 0.54083884 0.898655 -1.0570426 -1.8814397 1.390757 -0.36852092 0.10586883 0.27091444 -0.97895765 -0.51755077 -0.3772836 0.9726584 -0.3789162 1.6738412 0.31874534
dimension -0.6668201 1.0596484 0.14729989 -1.7651497 -1.2120465 -1.6456422 -0.0008001052 0.026115771 -1.4830576 -0.0430825 0.35846835 0.023868753 -1.3362949 -1.1408908 0.9444358 0.26117775 0.14368206 -0.1827934 -1.0408229 -0.0148895625 -0.5839423 0.5165997 0.92205346 1.5291306 -0.35489765
respect -0.3446913 0.64221394 -0.048864145 -2.1980636 -0.7043825 -1.944879 0.565794 0.039511245 -1.8939545 0.3475543 0.26874694 0.7637665 -1.243605 -0.7681671 1.1375496 0.0681482 0.18504809 0.08810052 -0.6288233 0.2552151 -0.33554885 1.1558229 1.2911326 0.17390604 -0.28291243
hidden -0.6789818 1.5481637 -0.037837844 -2.7984645 -1.3726151 -0.718246 0.3124194 -1.4452349 -1.0902691 0.24451253 0.6669388 -0.38332832 -1.9647428 -1.3338362 -0.1763052 0.3171554 -0.15026014 -0.9891535 -0.3662866 0.95969605 -0.7850671 -0.20173955 1.257746 1.0424758 -1.0381826
well -0.8293963 1.4599161 -0.5114756 -1.8168473 -0.80979896 -2.0457184 -0.28000176 0.8357224 -1.6928936 0.021263948 -0.93855935 0.13242862 -1.1066916 -0.26111907 0.5511217 -0.17949517 0.2689878 0.844137 -0.13916308 0.8638562 -1.460202 0.19059154 0.1907929 1.1142927 0.3536609
cluster -0.7494363 1.4556684 -0.4535536 -1.9321047 -1.2010561 -2.0279248 -0.14211546 0.6475985 -1.7642808 0.12751469 -0.30343002 0.10002064 -1.3848699 -0.6435589 0.6237133 -0.26591685 0.27738753 0.22254398 -0.7554452 0.6334875 -1.0502698 0.5267484 0.6178888 1.2201463 0.2562264
statist -0.98007643 1.3304046 -0.57013327 -1.6405393 -0.86317295 -1.9434373 -0.43229607 0.8790652 -1.5068167 -0.0015934127 -0.96934444 0.070412725 -1.0105019 -0.29682845 0.3884684 -0.16706881 0.21639238 0.69782597 -0.087952174 0.91350085 -1.564778 0.0013612395 -0.020271443 1.4140799 0.35866728
requir -0.57290673 1.3991061 -0.3280948 -1.848103 -0.68171877 -1.77322 -0.064889245 0.5494275 -1.638939 0.0045068036 -0.5119378 0.25828654 -1.0599093 -0.33521247 0.51939946 -0.06591462 0.28617296 0.68366563 -0.23641801 0.61349034 -0.99318653 0.34980923 0.49457377 0.6356854 0.15673038
compar -0.8339938 1.8683085 -0.88361675 -1.635736 -1.009931 -2.2008398 -0.5876522 1.6725909 -1.8816793 -0.05500272 -1.3200006 -0.11955754 -0.96328497 -0.12801129 0.5645048 -0.5055535 0.33492905 1.2034142 -0.46332034 0.9910699 -1.7893647 0.13439023 -0.18504755 1.5741404 1.1089227
mani -0.9332069 1.5621994 -0.34894207 -1.7454175 -0.8698989 -1.9909333 -0.26460683 0.71580136 -1.5997206 0.00019354305 -0.9794063 0.056553848 -1.1914545 -0.47595298 0.5542084 -0.04608842 0.26090774 0.8373213 0.014920607 0.7924001 -1.6471229 -0.14312603 0.19857512 1.1495022 0.15918611
make -0.7618526 1.4195737 -0.35285905 -1.9293265 -0.7499797 -2.0868678 -0.055304118 0.6778953 -1.762718 0.14248288 -0.77199787 0.31722152 -1.1563858 -0.4496626 0.7374576 -0.07147271 0.29462305 0.7890679 -0.09448826 0.73913527 -1.336261 0.2182462 0.3732705 0.7779249 0.13323312
tree -0.7408614 1.2794623 0.08089435 -2.0391452 -0.85921896 -1.5189697 0.07674326 0.18537663 -1.4424629 0.4218827 -0.300844 0.34475204 -1.3777896 -0.75793725 0.5113962 0.0026285418 0.18150741 0.48822597 -0.18816768 0.8750427 -1.1087283 0.16016743 0.6168268 0.71125007 -0.32082185
normal -0.45592126 0.21439101 -0.16167606 -2.3106666 -0.26958957 -1.8679003 0.44665843 -0.19740431 -1.8605937 0.3237409 0.11113042 0.56705827 -1.2760221 -0.27088937 1.0985007 0.035577387 0.2691875 0.055529967 -0.324954 0.5060117 -0.42163846 1.1625383 1.3449842 -0.032845926 -0.40192816
give -0.65788597 0.8957184 -0.069356844 -2.1076698 -0.61385167 -2.0811481 0.11589633 0.7811106 -1.8448769 0.2219501 -0.4484043 0.59309936 -1.1708623 -0.42812526 0.9377382 -0.033963855 0.28242618 0.8994818 -0.2890181 0.64993477 -1.0091594 0.73908675 0.57362145 0.54139113 0.18651196
separ -0.9244654 1.0659311 -0.5064192 -1.4420506 -0.7824429 -1.7173197 -0.20305209 0.6922667 -1.4715279 0.11037042 -0.7512361 0.0076286085 -1.1708988 -0.36323225 0.7518791 -0.18926284 0.31741226 0.5241096 -0.26840797 0.4751049 -1.2610588 0.18565586 0.37975165 1.054641 0.27649242
structur -0.87094355 1.3247302 -0.28945428 -1.8701558 -0.9652542 -1.6482983 -0.15009153 0.44023916 -1.4043001 0.14852661 -0.55953234 0.11939603 -1.2303644 -0.46938363 0.30105996 -0.046891026 0.19034168 0.50120366 -0.1411557 0.8754098 -1.3187202 -0.01829934 0.34905744 1.1232738 -0.027072478
minim -0.26143825 0.9125788 -0.26492354 -2.030995 -0.69939965 -2.2104716 0.4075572 0.80566263 -1.931582 0.15870146 -0.19107111 0.7357434 -0.9235185 -0.3657296 0.9605811 -0.13360055 0.31364343 0.65580916 -0.5061429 0.48808387 -0.6051669 1.2235405 0.66215706 0.26408324 0.28095087
consist -0.59872216 1.573925 -0.3899139 -1.6395129 -1.2577933 -1.6347109 0.20521985 0.3001793 -1.470204 0.320233 -0.22262426 0.16192484 -1.3440417 -0.90524566 0.5397724 -0.21254465 0.15143271 0.11273429 -0.5978437 0.45748937 -1.0103263 0.33428198 0.7153051 1.0801713 0.1686448
thu -0.5709648 1.1666371 -0.115626 -1.9134407 -0.66270316 -1.9418715 0.22441565 0.3067291 -1.7055373 0.23021947 -0.40628836 0.41539082 -1.271243 -0.69513464 0.9152348 0.049390443 0.26488045 0.49648324 -0.25492236 0.38137555 -0.96413904 0.43813196 0.75746834 0.53883976 -0.13958709
chang -0.703437 1.217493 -0.25296742 -2.4317617 -0.4923135 -2.1646376 0.14900205 0.023816075 -2.0924032 0.21822287 -0.6194202 0.35709712 -1.5144496 -0.54861355 1.0817628 0.06955495 0.26958 0.532163 0.014466142 0.5490214 -1.2090024 0.5008983 1.0425687 0.4895811 -0.36786225
channel -0.7599053 0.9323266 -0.27824038 -2.3274038 -0.4809451 -1.7621926 0.09172814 -0.3073029 -1.9647931 0.22511676 -0.6307408 0.099687085 -1.4107314 -0.6510833 1.1772745 0.11463426 0.297965 0.26468498 0.0051915813 0.42941004 -1.1690283 0.43317115 1.244923 0.47798094 -0.5085176
iter -0.5678612 1.2409359 -0.514497 -1.8535163 -0.62505 -1.6932093 -0.20172705 0.8563446 -1.8284655 0.018833634 -0.6349033 0.19821566 -0.83815396 0.096021436 0.43493456 -0.33368018 0.2547788 0.7965579 -0.43983293 0.8400325 -1.0346749 0.7282027 0.44558397 0.7508571 0.6334635
margin -0.34633663 1.0322586 -0.19699478 -2.2125869 -0.92092663 -2.0260088 0.40803108 0.5702218 -1.9606587 0.32084155 0.00381507 0.6947308 -1.2324535 -0.5218406 0.8776387 -0.18791245 0.13713095 0.47123605 -0.7001056 0.5365906 -0.505598 1.236323 1.0833054 0.327722 0.29387873
visual -0.91812974 1.7197351 -0.51069295 -1.4964403 -0.73314106 -1.8588909 -0.127583 0.33539 -1.4118772 0.083651066 -0.99047786 -0.06340053 -1.3552889 -0.66495425 0.7099261 -0.12666702 0.108561024 0.47609156 -0.04473176 0.27069992 -1.602068 -0.31056777 0.4342429 1.0654454 0.118496075
filter -0.71118146 1.2212466 -0.26910505 -2.0812936 -0.562249 -2.0638602 0.1609221 0.29410008 -1.8489017 0.15125133 -0.65312606 0.33817208 -1.3850831 -0.69685704 1.0790921 0.045309294 0.29538998 0.5773823 -0.1795738 0.4328895 -1.282345 0.2415504 0.839822 0.6354653 -0.06117441
theorem -0.71688265 0.9726943 0.17290404 -2.3589082 -0.5895153 -2.3352733 0.22398442 1.0566608 -2.00804 0.46045545 -0.43087465 0.85065836 -1.3263549 -0.7333623 1.253304 -0.034623235 0.23418115 1.2535295 -0.1674285 0.5695364 -1.1464725 0.6560902 0.61490077 0.46368793 0.23620012
take -0.52584016 1.2559586 -0.055040266 -2.3226447 -0.75161 -1.89245 0.36567158 -0.07371034 -1.7963663 0.27199224 -0.1822563 0.5399677 -1.4188559 -0.737098 0.7637923 0.1195876 0.1404578 0.30303642 -0.19582236 0.5385781 -0.8741746 0.43783224 1.0431871 0.44076923 -0.3821929
dimens -0.45949546 1.399818 -0.0019786372 -1.8898767 -1.152144 -1.8730739 0.48279807 0.31926057 -1.704526 0.28487667 0.1672002 0.4612519 -1.5095605 -1.2532903 1.0840206 0.056377415 0.1920197 0.13403235 -0.8997826 0.05759213 -0.5494352 0.67100435 0.9783703 0.7995956 -0.1796389
non -0.9205583 0.7025352 -0.13779353 -2.2926738 -0.6975863 -2.2065835 0.090182796 0.16088688 -1.8140948 0.3391496 -0.078236565 0.4538443 -1.458568 -0.74321043 1.0644015 0.07782023 0.32191387 0.084706225 -0.24493954 0.58902484 -0.97809094 0.6639566 0.82811624 0.9552921 -0.45796075
direct -0.63461965 1.5275676 -0.2602671 -1.8502865 -0.6943899 -1.7223487 -0.015453778 0.3507002 -1.6265477 0.08218015 -0.7120857 0.13272895 -1.1765995 -0.52969396 0.57364637 0.025825564 0.15610518 0.6654739 -0.058930807 0.5816775 -1.3252845 0.06341738 0.46960542 0.67858815 0.039572865
infer -0.8815203 1.1338832 -0.2628833 -1.5847282 -0.6397227 -1.561543 -0.4774352 0.78699267 -1.295429 -0.0952862 -0.98183924 -0.0036914684 -0.79084086 -0.08364561 0.116768494 0.011123744 0.25096288 0.89489025 0.11443484 1.1370937 -1.5817785 -0.2129427 -0.13225122 1.1870172 0.21185687
spike -0.3803973 1.9442244 -0.85323244 -2.0064788 -0.9559008 -1.8332145 0.083764374 0.025218142 -2.0740814 0.24455862 -0.50602955 -0.12937008 -1.5108383 -0.6652469 0.80835915 -0.24158977 0.1697522 0.08990241 -0.49050763 0.5347985 -1.1781946 0.4217677 1.1614913 0.9254825 0.28349322
determin -0.5061325 0.8347588 -0.18161574 -1.8981005 -0.5927096 -1.8454763 0.1702937 0.102109775 -1.6580517 0.16194868 -0.14953664 0.4599234 -1.1164578 -0.46618074 0.7755718 0.017672459 0.25694188 0.16041708 -0.25227997 0.42859334 -0.6766645 0.7384018 0.86707747 0.4824247 -0.30588722
applic -0.9307601 1.6615827 -0.41402993 -1.4739518 -0.8068995 -1.9179306 -0.34146345 0.9895815 -1.5002913 0.0204179 -1.1290324 0.09301011 -0.9271624 -0.3581804 0.53060365 -0.14392309 0.22302073 1.0597882 0.08014912 0.78207904 -1.6809616 -0.33258185 -0.10123848 1.1479981 0.5259733
nonlinear -1.1228819 1.0956326 -0.12687922 -1.6583828 -0.68719393 -1.7000554 -0.28459007 0.36858124 -1.3088014 0.007540643 -0.8621199 -0.01942454 -1.0319656 -0.54629856 0.4907136 0.17362082 0.26830685 0.68243057 0.16577755 0.8311683 -1.6687611 -0.47318956 0.07175923 1.4942248 -0.23373902
small -0.3604038 1.336248 -0.40013528 -1.9746848 -0.7097563 -1.9636749 0.18538563 0.4643925 -1.8225493 0.207009 -0.2552461 0.42274448 -1.3005797 -0.528755 0.84934866 -0.19742914 0.2994112 0.39524737 -0.5074139 0.37908426 -0.7756499 0.8186095 0.92668927 0.47548 0.09103907
fix -0.45737097 0.90868723 -0.099992454 -2.1649566 -0.7031393 -1.8613878 0.20268534 0.24524905 -1.7015063 0.30439246 -0.10648409 0.60522366 -1.2955111 -0.51370263 0.873492 -0.01901185 0.26658988 0.3085369 -0.45093533 0.39694187 -0.723395 0.94792724 1.024713 0.49425223 -0.19690496
bayesian -1.0989472 1.2051959 -0.27077433 -1.7918972 -0.78818345 -1.867581 -0.5397681 0.9777002 -1.4679927 -0.07386679 -1.0789489 -0.13500544 -1.0693715 -0.3981962 0.16891703 -0.0034656173 0.20574993 0.93226624 0.0588488 1.1981629 -1.917502 -0.2927144 -0.25132456 1.5963546 0.23944184
would -0.59846675 1.2169831 -0.30278328 -1.825558 -0.665178 -1.8673053 0.021975815 0.48568478 -1.6541076 0.12580727 -0.6021061 0.3150478 -1.1732949 -0.463945 0.7128484 -0.03984969 0.26391602 0.5748903 -0.13878891 0.50730705 -1.0685914 0.36358732 0.59970874 0.5981593 0.05511884
field -0.8768813 0.5536808 -0.20336889 -2.2552204 -0.20574896 -2.089994 0.05928035 0.11911043 -1.8188139 0.11683253 -0.52565205 0.197615 -1.5454756 -0.25727528 1.0169168 0.22399397 0.31291962 0.4299382 0.13061875 0.7636412 -1.4809672 0.3836542 0.6872344 0.68599945 -0.46134505
complex -0.5891154 1.1506968 -0.122316115 -1.4310254 -0.4687606 -1.6693617 -0.053127546 0.7574535 -1.3234961 0.093117505 -0.74389225 0.29144964 -0.86379707 -0.31181887 0.64444613 0.05036247 0.22198552 0.840055 -0.046255525 0.55605483 -1.1435097 0.024047164 0.17054795 0.63531595 0.08143053
combin -0.8738071 1.2954233 -0.24767852 -1.9287074 -0.9480858 -2.0460317 -0.04618327 0.65544385 -1.643981 0.16927929 -0.58325475 0.31777844 -1.1653574 -0.5837389 0.6805654 -0.0248571 0.22733976 0.63530266 -0.18493514 0.81161904 -1.3414158 0.24867873 0.33098057 1.1183727 0.024449322
procedur -0.7601048 1.3674364 -0.3447358 -1.9776121 -0.7377384 -1.986226 -0.19821884 0.98100674 -1.8134701 0.07407446 -0.71833074 0.3197377 -1.0483555 -0.3766594 0.56713223 -0.15410502 0.21620373 0.90253395 -0.32591176 0.8443896 -1.3338052 0.36834776 0.3616301 0.9030396 0.44058168
varianc -0.6296011 -0.0041168667 -0.34636548 -2.7420185 -0.19022414 -2.0684595 0.38703322 -0.38255998 -2.1783764 0.27748775 0.10603584 0.43158576 -1.6159351 -0.15006945 1.3784566 0.104677595 0.36989382 -0.25203276 -0.3170904 0.66615576 -0.6988636 1.2975811 1.4304959 0.07654063 -0.7171816
propos -0.98863965 1.4364504 -0.35069138 -1.6104591 -0.7531388 -1.7034111 -0.59369045 0.86958045 -1.4083933 -0.1164863 -1.088949 -0.14749348 -0.9283034 -0.29172778 0.15072247 -0.069909416 0.13532194 0.9884335 0.006836089 1.0521586 -1.8005332 -0.33797413 -0.20482273 1.481947 0.35819876
label -0.36085325 1.41903 -0.26947707 -2.0213778 -1.5652796 -1.9795356 0.6526004 0.32488492 -1.7150854 0.5523674 0.4126402 0.70666385 -1.4532607 -1.2328559 0.9600585 -0.1552177 0.0876465 -0.09832731 -1.0061541 0.35353166 -0.42600685 1.1242169 1.0514966 0.6962188 0.20743367
indic -0.44328234 1.0084343 -0.27752972 -1.9418858 -0.69212514 -1.8466111 0.36802164 0.35286152 -1.6924635 0.3341949 -0.05824114 0.4598644 -1.2614679 -0.65910965 1.0230552 -0.09849096 0.17042711 0.25380683 -0.56113005 0.19691567 -0.6217488 0.9007551 0.9769894 0.4157052 0.08876751
studi -1.0470064 1.7291666 -0.45023835 -1.8316303 -0.80870605 -2.058111 -0.3790168 1.0771753 -1.6169848 0.1294171 -1.2315487 0.05796095 -1.1743646 -0.50163496 0.5332617 -0.12722051 0.23824854 1.1553513 0.061565652 0.94089174 -1.9382938 -0.38910425 -0.13568315 1.3707443 0.44265273
action -0.524957 1.1720597 0.25687933 -2.4360142 -0.85120887 -1.97722 0.53481835 -0.15820614 -1.8540401 0.3315685 0.082886845 0.6706616 -1.4224582 -0.9853828 0.9683568 0.26141393 0.12076479 0.4781819 -0.31433716 0.44914007 -0.7287251 0.65548265 1.1834278 0.4694894 -0.47376817
fig -0.59278053 1.0618501 -0.34834498 -1.4984887 -0.51884985 -1.5553349 -0.06775779 0.5237869 -1.4989095 0.18243729 -0.6267514 0.11188511 -1.082215 -0.36997995 0.705457 -0.18063174 0.13534178 0.4879675 -0.35667118 0.43004438 -1.0720059 0.18650608 0.54073006 0.6815886 0.3130295
standard -0.774138 0.63044614 -0.49791378 -2.0746906 -0.43208098 -1.9941144 -0.06916086 0.6403211 -1.7687314 0.20037253 -0.6764273 0.1388064 -1.1056173 -0.09827413 0.93297225 -0.11847497 0.3620848 0.48304632 -0.2215289 0.8429058 -1.2757188 0.5986829 0.48495612 0.77132344 0.14805748
simul -0.7781465 1.528556 -0.70869285 -1.5194668 -0.7386407 -1.6739867 -0.48210683 1.1534617 -1.5009665 0.12265611 -1.0288392 -0.13541889 -0.89362806 -0.18480447 0.4202695 -0.33862963 0.2127935 0.9389266 -0.3664641 0.9342676 -1.6361563 -0.036353078 0.036122203 1.2837152 0.767955
scale -0.5749351 1.0283611 -0.28606874 -1.9060512 -0.6084291 -1.8238357 0.10161469 0.35547867 -1.6951858 0.12557222 -0.3414513 0.27222016 -1.2665509 -0.48090863 0.8755312 -0.10177983 0.23639652 0.31125605 -0.30991668 0.4081024 -0.90743303 0.5357479 0.72339904 0.6079673 0.008212172
zero -0.49009916 0.05026779 -0.114397295 -2.3985476 -0.1710846 -1.909209 0.5446627 -0.50992274 -1.8520576 0.4049889 0.39459974 0.56777865 -1.5676103 -0.6161329 1.3640721 0.12041769 0.35270503 -0.2778429 -0.31535867 0.23609594 -0.38671193 1.1929002 1.354069 -0.02493154 -0.7554161
three -0.6711704 1.5780345 -0.6345963 -1.7045544 -1.0948056 -1.8197939 -0.13914281 0.77955776 -1.6949991 0.15283269 -0.53036416 0.021166649 -1.26791 -0.48590827 0.63421804 -0.32306585 0.18964118 0.42136154 -0.7115915 0.63954014 -1.1847878 0.4284148 0.51565725 1.1865643 0.5536346
allow -0.83597237 0.96861756 -0.033707116 -2.138367 -0.6137746 -1.9660894 0.045679785 0.2291608 -1.6938244 0.1916913 -0.48340857 0.37232965 -1.284755 -0.5681238 0.79109013 0.12839444 0.24344093 0.5968112 -0.11577409 0.6747185 -1.1723602 0.38479957 0.6443874 0.74609405 -0.3046466
expect -0.46643424 0.92721224 -0.27514467 -2.2941456 -0.7536546 -2.1028867 0.24497345 0.5209377 -2.0221913 0.19981496 -0.25701365 0.64353704 -1.12504 -0.29233646 0.83851975 -0.09563184 0.24465138 0.5578328 -0.44762152 0.7173632 -0.79557955 1.0820335 0.9310328 0.39826268 0.092845194
discuss -1.1071689 1.5406417 -0.2586395 -2.02403 -0.78652155 -2.4033704 -0.34975773 1.398553 -1.8658246 0.19483596 -1.1982849 0.28553343 -1.2571061 -0.52659017 0.79874337 -0.07393754 0.25488207 1.4319854 -0.077586256 0.927089 -1.9543989 -0.178313 -0.05749396 1.2857779 0.5405644
line -0.6841667 1.3227388 -0.47027826 -2.1462693 -0.5354817 -2.1042674 0.05976772 0.8549696 -2.0053258 0.3248553 -0.83335465 0.40058994 -1.197912 -0.25037527 1.009797 -0.24790834 0.27988878 0.770139 -0.4772571 0.48245758 -1.2251575 0.6098258 0.6875845 0.6566068 0.4302187
right -0.60703164 1.6532848 -0.5921464 -2.3249304 -0.7211862 -2.179441 0.18210122 0.54877186 -2.151701 0.4189277 -0.65386593 0.25309795 -1.6502223 -0.49252382 1.1726681 -0.25549576 0.261586 0.66271645 -0.738448 0.37847036 -1.3268119 0.49223062 1.0503155 0.6089338 0.5287674
techniqu -0.9894647 1.2690778 -0.39208817 -1.4044939 -0.6597013 -1.8520256 -0.5091565 1.2448732 -1.3888394 -0.14299159 -1.158357 0.05896475 -0.7539413 -0.25901157 0.42794794 -0.09549039 0.25031242 1.0416124 0.032688037 0.8531757 -1.6452125 -0.29934528 -0.3625184 1.4165145 0.48970866
target -0.33277825 1.5062964 -0.43925896 -1.8293352 -1.1327562 -1.6098806 0.2588218 -0.114076 -1.5498544 0.21954697 0.13844948 0.18702711 -1.3092113 -0.8397566 0.57339793 -0.15181677 0.08683574 -0.20462154 -0.65441656 0.3648118 -0.65684307 0.6196449 0.98599803 0.73833275 0.016063834
synapt -0.5957012 1.062526 -0.13009185 -2.0066602 -0.1335145 -1.9629474 0.17892891 -0.111322686 -1.9023477 0.30630904 -0.5348702 0.31688187 -1.3706472 -0.7408085 1.0703931 0.17412606 0.26989135 0.5328355 0.07194972 0.38049847 -1.1204647 0.16020612 0.9053747 0.38540196 -0.45605436
frequenc -0.42735606 1.5696533 -0.50690514 -1.8176237 -0.77101153 -1.6044743 0.23324585 0.035147488 -1.756083 0.10559562 -0.44387048 0.04801722 -1.4246595 -0.75464267 0.8326383 -0.14414543 0.14590412 0.18216246 -0.45330772 0.14839125 -0.96093535 0.35921845 1.1183581 0.58589953 0.111076206
polici -0.62281317 1.1019588 -0.05457791 -2.072746 -0.61636233 -2.0924337 0.08684051 0.7967883 -1.8506932 0.144816 -0.509631 0.5831704 -1.023929 -0.35596126 0.82716763 -0.01253832 0.2973384 1.0058683 -0.256119 0.6643245 -1.0477448 0.62334055 0.56885475 0.539168 0.11303326
like -0.725687 1.2047629 -0.25924844 -1.8300465 -0.6231655 -1.9780062 -0.04101758 0.60909593 -1.6091392 0.12791185 -0.6715788 0.3472244 -1.0928897 -0.4200894 0.6990699 -0.049074024 0.24094239 0.7158781 -0.06886006 0.64227283 -1.201307 0.24724224 0.4247451 0.78938746 0.06150896
region -0.4455895 1.6208705 -0.26377308 -2.048969 -0.93075424 -1.9958702 0.33789954 0.208339 -1.8615719 0.24607839 -0.32753742 0.45874324 -1.5359455 -0.85812265 0.9113414 -0.084696375 0.15386117 0.3905876 -0.5166889 0.17096564 -0.97487324 0.54621667 1.0792143 0.52554893 0.004368588
potenti -0.651547 1.2022558 -0.04787752 -1.9703351 -0.40385553 -1.9841241 0.23693147 0.5465464 -1.8532667 0.2514068 -0.6442034 0.47520432 -1.1264015 -0.54658794 0.9606448 -0.01974121 0.22427239 1.0291483 -0.07371588 0.47732303 -1.1012357 0.33472544 0.6294108 0.3928574 0.0036223533
locat -0.56257325 1.3829036 -0.29958585 -1.9738687 -0.68722254 -1.8773476 0.30849513 -0.015317858 -1.7503496 0.18086079 -0.41486692 0.3653609 -1.5024745 -0.691324 0.95717376 -0.018268025 0.18665564 0.2805678 -0.22692432 0.20449689 -1.058644 0.34811696 1.0243578 0.31062043 -0.14376754
object -0.4852529 1.0071638 0.05497606 -1.39829 -0.68039525 -1.6549888 0.38352194 0.39312977 -1.3002872 0.17983568 -0.2114847 0.50246686 -0.93933195 -0.70282173 0.5960544 0.052710228 0.13889772 0.6185927 -0.15939237 0.22990248 -0.70842093 0.33347744 0.5229194 0.43674618 -0.049923785
machin -0.52110535 1.2156899 -0.12174497 -1.3010925 -1.2296677 -2.2413476 -0.4613148 1.7298667 -1.3517144 0.115664184 0.07188665 0.3913008 -0.836087 -1.2996895 0.8866329 -0.22992365 0.20876653 0.30206448 -0.50542444 0.075570434 -0.6919947 0.37297714 -0.54910636 1.7104635 0.59904766
limit -0.78982794 1.2139373 -0.18531764 -1.8345793 -0.56880367 -1.9817101 -0.13113736 0.7502391 -1.6341811 0.1476381 -0.8254783 0.32309657 -1.1766524 -0.40414777 0.78359276 -0.0065755206 0.26943615 0.905162 -0.11200282 0.6029069 -1.3846048 0.13127019 0.3751073 0.832254 0.081010014
properti -0.75058156 1.2584176 -0.21252131 -1.6572772 -0.6524873 -1.8478613 -0.07611468 0.58405 -1.5131084 0.115205765 -0.77877045 0.21614945 -1.1412871 -0.47323036 0.6547432 -0.04551308 0.20915109 0.7619893 -0.067635395 0.54423755 -1.2837206 0.06229815 0.34810144 0.83903086 0.069869846
layer -0.67025876 2.0875952 -0.1284755 -2.4257305 -1.2444743 -0.88901424 0.31683838 -1.0102743 -1.3235196 0.19259344 0.11853483 -0.5759314 -2.0570633 -1.5721916 0.010907783 0.27133855 -0.08683598 -0.4864355 -0.26091754 0.5758373 -1.31562 -0.6772523 1.0360442 0.99284893 -0.61609924
context -0.70662045 1.2783158 -0.36011472 -1.9691415 -0.92298186 -1.8909134 0.08223067 0.28107 -1.723258 0.069374576 -0.43204635 0.24539603 -1.2740264 -0.6357819 0.6765454 -0.06570841 0.17298038 0.40406287 -0.21769711 0.5938437 -1.138385 0.36644363 0.6613816 0.8266371 0.08387326
simpl -0.82719743 1.1001393 -0.18468215 -1.5506494 -0.5136629 -1.7042358 -0.2478483 0.74297 -1.3705194 0.040931378 -0.9088596 0.12038258 -0.922308 -0.31930938 0.43254957 -0.010613695 0.16748519 0.92916524 0.0018449624 0.7935305 -1.4482845 -0.17026035 0.07751758 1.0008985 0.24122202
markov -1.0906398 0.8244734 0.18830897 -2.2511969 -0.7037624 -1.5977323 0.06179166 -0.17085522 -1.3067851 0.31411022 -0.31150982 0.18741749 -1.3317624 -0.79587424 0.48308608 0.3503188 0.14332175 0.37246057 0.029058592 1.0619451 -1.4295225 -0.2099041 0.5735735 1.0221897 -0.7892092
import -0.8039187 1.475376 -0.44163555 -1.7774166 -0.79818696 -1.9449391 -0.29764336 0.9032514 -1.6160573 0.07353817 -0.867888 0.2011757 -1.0998901 -0.3440904 0.5611165 -0.12966944 0.21852265 0.8676116 -0.14457402 0.81076086 -1.5159179 0.11147538 0.160474 1.0772964 0.3640316
classif -0.5756523 1.5388186 -0.53630936 -1.3117269 -1.0957187 -1.825151 -0.18057218 1.0553771 -1.4173371 0.016288519 -0.61776406 0.10642737 -0.8318088 -0.5522655 0.49812928 -0.23914772 0.18365029 0.6285573 -0.40538633 0.5518381 -1.1558353 0.2087826 -0.0055369544 1.2584999 0.70887977
belief -0.9388011 1.4856703 0.064136855 -2.6264 -0.78738004 -1.5445986 -0.19436947 -0.21802615 -1.7700078 0.0007494903 -0.38528818 -0.06090415 -1.5299973 -0.62620544 0.18408872 0.2926331 0.124540314 0.62570536 0.079638995 1.0940437 -1.49823 -0.120738715 0.5842946 1.2622082 -0.33134317
need -0.63971615 1.1654669 -0.13974583 -1.9706637 -0.7016876 -1.8238913 0.0709444 0.376233 -1.5870371 0.13821684 -0.4327742 0.32784194 -1.2050871 -0.5040919 0.6805741 0.030744208 0.23734383 0.5675199 -0.16542222 0.6347379 -1.061061 0.30987814 0.5885602 0.6686224 -0.10971722
covari -0.714572 -0.38303703 0.08040778 -2.4956474 0.23231262 -2.082839 0.5071078 -0.5382818 -1.9255229 0.42959625 0.45185596 0.8670665 -1.44531 -0.6072557 1.6173673 0.2429532 0.47095734 -0.2088564 -0.09306138 0.16396596 -0.2947069 1.1199974 1.2363437 -0.019778341 -1.1186829
control -0.8137313 1.4064451 -0.38481262 -1.7966307 -0.648644 -1.9447428 -0.024181886 0.5133246 -1.6685784 0.12691738 -0.9079261 0.18118377 -1.219282 -0.5061712 0.7711182 -0.04135985 0.21856403 0.7167481 -0.049470227 0.61530495 -1.5104457 -0.053214464 0.41131425 0.82882315 0.060421582
stimulu -0.6042594 1.623713 -0.60237324 -2.0305452 -0.83262044 -1.8827343 0.08242656 0.19389859 -1.8893924 0.12428148 -0.53381824 0.076383516 -1.5327828 -0.70131516 0.8616673 -0.15025541 0.120908976 0.24744691 -0.41375372 0.35504147 -1.2297362 0.34210828 0.9369992 0.70807445 0.21813172
type -0.93970376 0.7553658 0.05313323 -2.028141 -0.6393161 -2.0772486 0.2523699 0.65546674 -1.618275 0.4825087 -0.6527541 0.43386424 -1.3789324 -0.63224053 1.2115302 0.1559999 0.38510653 0.8084058 -0.091486424 0.7577609 -1.4481946 0.09719616 0.391911 0.63552153 -0.28214654
high -0.59667623 1.1843758 -0.11403784 -1.7931875 -0.82489264 -1.8882464 0.09752352 0.3251706 -1.5883837 -0.06109018 -0.28833187 0.19539416 -1.2835964 -0.66520315 0.94433105 0.087769024 0.2255333 0.23105893 -0.49573964 0.18750513 -0.8620057 0.42648822 0.7845956 0.8252492 -0.11529455
calcul -0.73672503 1.2982663 -0.33484125 -2.2514067 -0.7974001 -2.0585349 -0.021400046 0.7198845 -1.9194657 0.22021018 -0.56090915 0.4143589 -1.2670977 -0.40103284 0.6868377 -0.09036351 0.26968694 0.7797073 -0.26309422 0.8721362 -1.2234588 0.47237977 0.5381573 0.738286 0.21932912
abstract -0.7396036 0.9625132 -0.08401367 -0.87929505 -0.5140205 -0.97180945 -0.47132617 0.60764474 -0.7609695 -0.06861338 -0.76669544 -0.1416044 -0.49171904 -0.25463146 0.006024687 0.030638456 0.040686287 0.7893712 0.13371465 0.6814252 -1.2241371 -0.55368876 -0.41003695 1.1055454 0.2243312
maxim -0.5521293 0.76671654 0.0076887333 -1.8811064 -0.6454522 -1.9839376 0.28066763 0.5383842 -1.7729396 0.09910955 -0.3238973 0.7008238 -0.95798457 -0.39380097 0.7431838 -0.027362637 0.17042264 0.7121732 -0.2551926 0.47613862 -0.68711954 0.8147925 0.7980039 0.21547575 0.0693248
call -0.51613003 0.9917262 0.08277019 -1.5679375 -0.75864804 -1.5911855 0.25268346 0.47790027 -1.2576363 0.25230768 -0.16285866 0.4938429 -1.0515839 -0.8121039 0.69657606 0.048371904 0.121186405 0.4947655 -0.29897782 0.34099573 -0.7454366 0.3207908 0.38799816 0.634317 -0.098613925
tempor -0.76344323 1.6280044 -0.44759732 -1.6879992 -0.7322842 -1.5726478 -0.11162136 0.24745335 -1.5118932 0.11229083 -0.7213133 -0.10118713 -1.2736971 -0.53184885 0.40404558 -0.14589089 0.13726196 0.45564333 -0.10215829 0.5564841 -1.351645 -0.16075641 0.43849936 0.952139 0.22569668
distanc -0.4667812 1.4244214 -0.19019407 -2.355338 -0.79704225 -2.0512474 0.52760345 0.24582441 -1.9380054 0.35572672 -0.20916171 0.56763005 -1.6119654 -0.8594719 1.1183097 -0.13118201 0.20753358 0.44761014 -0.46979603 0.2709461 -0.91110355 0.6386385 1.0800704 0.35423028 -0.000729161
particular -0.6990516 1.0824423 -0.101615965 -1.9970293 -0.82667476 -1.8696504 0.109833695 0.25996855 -1.6421696 0.23096696 -0.32513884 0.35064128 -1.3034575 -0.69854957 0.70368654 0.04076422 0.16813524 0.39285973 -0.24987686 0.59850705 -1.0447689 0.3973536 0.70049644 0.7855516 -0.101786464
maximum -0.70895654 0.7688711 -0.15247309 -2.1734698 -0.63515985 -2.1869729 0.061249632 0.65836906 -2.0208185 0.049727436 -0.5145074 0.62449175 -1.0553771 -0.14326958 0.65595967 -0.12891929 0.2466155 0.6827132 -0.37682596 0.69242585 -0.88226706 0.96460754 0.88482153 0.44832462 0.13784516
natur -0.8362384 1.1472747 -0.2434166 -1.6859984 -0.6936434 -1.869852 -0.1387243 0.6830244 -1.4836904 0.1516578 -0.66023004 0.23660597 -1.070684 -0.43673304 0.7431848 -0.0625548 0.20508386 0.6278929 -0.166396 0.6516394 -1.2542232 0.11530141 0.28130534 0.9752852 0.14580831
stochast -0.91778994 0.63649076 0.07815639 -1.6509019 -0.4406368 -1.5208302 -0.09656271 0.1813152 -1.2643324 0.17250939 -0.64027935 0.1664882 -0.9333075 -0.46073756 0.6131975 0.25588986 0.2121056 0.5428068 0.124245934 0.7624502 -1.2646006 -0.086425945 0.32645792 0.8692428 -0.42281923
addit -0.7430765 0.8905991 -0.24088989 -1.8189493 -0.56166464 -1.8135282 0.07570441 0.27792796 -1.5821273 0.23201445 -0.50598025 0.25685832 -1.2171727 -0.4525387 0.8494071 -0.016879044 0.2377874 0.37433004 -0.13123128 0.5518243 -1.0924739 0.31689462 0.5873191 0.6068675 -0.22426537
way -0.76933926 1.4869843 -0.27081543 -1.8727146 -0.89107156 -1.886808 -0.11289514 0.4900937 -1.6699284 0.075672984 -0.65844524 0.11432715 -1.2234608 -0.6136828 0.5563821 -0.048337985 0.23307951 0.6558376 -0.16849338 0.69735837 -1.3816606 0.102495864 0.399214 1.0219928 0.09434612
contain -0.4323626 1.6726401 -0.4323065 -1.9233849 -1.2209764 -1.9796112 0.35178867 0.48225346 -1.7387927 0.3604645 -0.033431765 0.4668927 -1.5058681 -1.0665021 0.8367641 -0.22538261 0.17775294 0.13085917 -0.73611635 0.25747535 -0.7507693 0.6676444 0.828685 0.7998884 0.19023457
constraint -0.59878284 0.86296755 0.10506609 -1.9090081 -0.57178795 -2.0046866 0.37722886 0.33532447 -1.6539974 0.24682923 -0.21749617 0.6893496 -1.1781765 -0.73179954 0.99331486 0.11284296 0.22300205 0.6304421 -0.13259764 0.25997344 -0.78503937 0.5687534 0.7559726 0.29363078 -0.29744643
gradient -0.69490755 0.9551383 -0.099508084 -1.6214538 -0.41924465 -1.875614 -0.07443085 1.0399171 -1.6308457 0.014943003 -0.7881707 0.43937173 -0.63644356 -0.15306978 0.6428653 -0.10459642 0.2669296 1.1841625 -0.10200142 0.7480383 -1.0424868 0.4171517 0.13401276 0.5340074 0.4282985
oper -0.6993522 0.9027754 0.10894983 -1.9825566 -0.56373423 -1.858728 0.31176794 0.1727936 -1.5860257 0.2632829 -0.3068357 0.54755676 -1.2819984 -0.82534933 1.000528 0.1688088 0.21220681 0.5954597 -0.11357245 0.31207448 -0.98713946 0.25328115 0.6868711 0.58993185 -0.32809603
pair -0.49533218 1.662887 -0.3640769 -2.2374177 -1.136691 -1.8981907 0.36487305 0.15274844 -1.8879112 0.3674016 -0.09222619 0.3277146 -1.5497564 -1.0114055 0.78652334 -0.16403592 0.12205205 0.26981032 -0.6335877 0.51294845 -0.943016 0.6205624 1.0353147 0.8777522 0.10239398
cue -0.74231213 1.3152593 -0.47912917 -2.1162977 -0.64213043 -2.092451 0.05563564 0.4250549 -1.9008436 0.10455777 -0.8454363 0.3314922 -1.3791522 -0.29277962 0.84998703 -0.12987876 0.257893 0.6532019 -0.10549859 0.5710187 -1.4136058 0.31340837 0.7061721 0.5068234 0.078392
variat -0.82757837 0.79710406 -0.15462211 -2.1092281 -0.42438024 -2.071752 -0.15823008 0.80689573 -1.8264557 0.07599184 -0.7673501 0.4323412 -1.085753 -0.123061776 0.703381 0.06920261 0.3113019 0.9893821 -0.005257419 0.9372217 -1.3576592 0.40138787 0.4073163 0.6466599 0.06996734
even -0.73666656 1.4947531 -0.3815083 -2.0553753 -0.82414323 -2.2056804 -0.046567705 0.7363513 -1.8867378 0.16815847 -0.66987747 0.34092644 -1.3130934 -0.51718736 0.79284525 -0.14204346 0.3127079 0.7716071 -0.26520485 0.67769617 -1.3062363 0.38360074 0.47258183 0.9425199 0.18339287
improv -0.7735185 1.6615622 -0.6799616 -1.5410948 -0.6886044 -2.084963 -0.39464176 1.3757563 -1.7547941 -0.067586884 -1.2914104 0.053831536 -0.93623155 -0.15742426 0.56461567 -0.3457826 0.27955037 1.151199 -0.17960022 0.79504824 -1.5963055 0.0701016 -0.05539198 1.1510555 0.7936907
includ -0.6910269 1.2420608 -0.30478695 -1.6612729 -0.8176846 -1.7227054 -0.041550905 0.5565378 -1.4696101 0.13548735 -0.52740896 0.18720339 -1.091659 -0.536086 0.63780135 -0.12115074 0.18800658 0.4340228 -0.33340874 0.54823285 -1.1095349 0.18924913 0.3762865 0.99001914 0.17515118
regress -0.76746476 1.3940442 -0.35782114 -1.7612418 -1.078232 -2.208467 -0.17273226 1.1472478 -1.7184453 0.07309097 -0.63548094 0.3286046 -1.0112779 -0.737856 0.8382565 -0.15230566 0.26793176 0.7536963 -0.31028873 0.59258825 -1.3800089 0.25049117 0.057763062 1.3940427 0.43858507
updat -0.6683995 0.96366465 -0.13711679 -2.0414646 -0.5606105 -1.7655123 -0.048544813 0.27179563 -1.6916816 0.08637729 -0.25882006 0.41370994 -0.9685102 -0.24420145 0.58501923 0.05011734 0.19765207 0.5482399 -0.16722536 0.7154929 -0.9128006 0.5094021 0.6010143 0.63083047 -0.024869494
initi -0.62441504 1.0488424 -0.22832832 -1.9770837 -0.6871657 -1.7696676 0.074171744 0.37954 -1.6727107 0.2802882 -0.296891 0.36979833 -1.2023582 -0.46460116 0.7694346 -0.08594592 0.21979629 0.43876097 -0.33964214 0.5662598 -0.9483872 0.6035935 0.7064127 0.6511117 0.048317034
spatial -0.6669577 1.6378849 -0.4520596 -1.6987504 -0.7818952 -1.5928415 0.06535501 0.1361358 -1.5012628 0.042987857 -0.5635317 0.0025343548 -1.3116231 -0.7312597 0.6162268 -0.16744013 0.13477191 0.2675594 -0.18194216 0.26676267 -1.2057855 -0.037501507 0.59735954 0.7884219 0.08159417
decis -0.74029994 1.3866003 -0.12537923 -1.8472767 -0.8974723 -1.7927773 0.05735792 0.43674192 -1.4871384 0.2549327 -0.46904486 0.344417 -1.1455833 -0.65987784 0.46769568 -0.061796438 0.0989172 0.646848 -0.14464803 0.7364455 -1.2341055 0.10052678 0.34262577 0.9760064 -0.033987883
subject -0.6461041 1.550891 -0.4702064 -2.030073 -0.889538 -2.2979434 0.17603856 0.81947964 -2.0242674 0.27826148 -0.6985141 0.44336733 -1.4272536 -0.6146781 1.0290685 -0.2804058 0.18769898 0.75740504 -0.37362334 0.4500677 -1.2339594 0.5697493 0.6932137 0.6102099 0.39948395
introduc -0.7715015 1.0000887 -0.15237862 -1.6444074 -0.6352559 -1.7244049 -0.16257606 0.58744085 -1.4235958 0.0723982 -0.48921233 0.24671468 -1.0049068 -0.5611814 0.5638253 -0.030498985 0.15361996 0.56032205 -0.1599213 0.5905774 -1.1484474 0.14365919 0.20568866 0.98311204 0.045059763
interest -0.6220507 1.006138 -0.26097453 -1.4620764 -0.6025296 -1.6287425 -0.14094499 0.56227636 -1.3565847 0.07122998 -0.62452334 0.18480438 -0.8981335 -0.25811833 0.53083426 -0.05533055 0.19313143 0.60639673 -0.1129388 0.60506785 -1.0931695 0.20032425 0.31272236 0.75206506 0.123383604
found -0.7544762 1.2707852 -0.34342948 -1.7832967 -0.65875536 -2.043185 -0.1533788 0.9132988 -1.7138997 0.090351805 -0.87065166 0.2521268 -1.105054 -0.31407425 0.7390207 -0.15502104 0.27343854 0.88612413 -0.18068561 0.65306205 -1.3735448 0.25324538 0.32707432 0.9147883 0.37988544
assumpt -0.7698516 0.65096146 -0.1763656 -1.899798 -0.5920765 -1.8125613 0.020545948 0.43684316 -1.5027251 0.2686983 -0.4478688 0.3468889 -1.1291357 -0.34169203 0.7624669 -0.034780856 0.25315216 0.43382853 -0.18428132 0.70809764 -1.0781035 0.5218338 0.51848954 0.70724773 -0.18373808
due -0.793927 1.5738 -0.34713492 -2.3092022 -0.7532293 -2.4775255 0.06930503 0.68219453 -2.1443388 0.20530753 -0.82783806 0.39087766 -1.5176793 -0.6734275 1.1558075 -0.030512933 0.3123334 0.85609305 -0.19955495 0.52746993 -1.4920352 0.40437827 0.7544153 0.8382618 0.08438351
element -0.45644987 0.9077667 -0.033418924 -2.1226192 -0.8156526 -1.9834121 0.6773872 -0.029296463 -1.707384 0.5156169 0.48861018 0.7984672 -1.5366238 -1.3173194 1.2188195 0.020830467 0.231326 -0.09289296 -0.6156392 -0.053538617 -0.3402689 0.89467424 1.0300288 0.39475167 -0.44193113
associ -0.6921258 1.3522956 -0.16957614 -2.155226 -0.9013917 -1.8570595 0.2166262 -0.024734117 -1.7529498 0.26793325 -0.21323614 0.31971788 -1.5092604 -0.8287097 0.7691697 -0.014405798 0.108111426 0.25178555 -0.32628497 0.4870655 -1.0234854 0.42227572 0.95484895 0.7675684 -0.2308883
constant -0.42338237 0.7939754 -0.018617114 -2.1428006 -0.4549906 -1.9066232 0.4401075 0.05268439 -1.817373 0.3246148 -0.0732052 0.6369748 -1.3325573 -0.68164724 1.1249471 0.052630313 0.2217438 0.3421853 -0.2300586 0.32679614 -0.6262441 0.81221706 1.1012206 0.12869868 -0.372187
code -0.61323655 1.0919427 -0.33511692 -1.5092291 -0.4258941 -1.6297814 -0.011735823 0.43781006 -1.4319531 0.054239754 -0.72404116 0.10578856 -1.0510434 -0.3170224 0.6890998 -0.041116305 0.20211443 0.6109172 -0.03762673 0.46520448 -1.1867172 0.15387157 0.4112096 0.5341203 0.11006101
circuit -0.6737447 1.4972755 -0.1397554 -1.8022932 -0.7417291 -1.6569426 0.10997947 0.23505266 -1.5460743 0.2966931 -0.6165268 0.16432995 -1.3184147 -0.7799517 0.6527637 0.026407441 0.23712933 0.5474329 -0.09365615 0.5321363 -1.2953744 -0.076207384 0.49543938 0.739475 -0.15115964
left -0.37389523 1.48925 -0.5466217 -1.6784776 -0.51917154 -1.5290028 0.09902593 0.54878336 -1.6710628 0.32005227 -0.47312894 -0.038768668 -1.2981069 -0.3869799 0.86972666 -0.35183564 0.19956504 0.4507244 -0.7440691 0.23715529 -1.1855808 0.35443112 0.81859314 0.7395432 0.72469556
coeffici -0.55084103 0.22729047 -0.009238686 -2.2234786 -0.39044562 -1.7113907 0.38208798 -0.22890836 -1.7000192 0.33519915 0.20203385 0.538437 -1.3093884 -0.52533835 0.9264087 0.09887082 0.21364029 -0.020592084 -0.29940504 0.5120099 -0.49331492 0.9696289 1.2078357 0.25733665 -0.5084946
real -0.49725795 1.3232348 -0.2808348 -1.4078504 -0.8767771 -1.631774 -0.01639104 0.5854489 -1.3165731 0.14857471 -0.34120873 0.26149404 -0.91971314 -0.5559559 0.5645586 -0.085381225 0.1632884 0.45617756 -0.3867514 0.382998 -0.8856602 0.2866509 0.364252 0.8938951 0.24187848
experiment -0.6902228 1.4806908 -0.6708293 -1.1221589 -0.7360289 -1.5804011 -0.455594 1.3926775 -1.2855849 0.12333743 -1.0743977 -0.016290547 -0.7326832 -0.14147794 0.404143 -0.45458326 0.1873873 0.9876745 -0.35466835 0.6976197 -1.5044492 -0.10767471 -0.2000833 1.2342303 0.97352326
becom -0.6561894 0.97853404 -0.17903237 -2.0061567 -0.5764506 -2.0331235 0.13971868 0.5241201 -1.7702422 0.22406232 -0.5153042 0.45931542 -1.2492071 -0.38123137 0.95593643 0.03173583 0.32240605 0.68187875 -0.17353135 0.5488214 -1.0492017 0.5490193 0.7120707 0.50004375 -0.09743744
rel -0.36665004 0.94694096 -0.38590845 -1.6045874 -0.38424024 -1.5691005 0.046816386 0.37306494 -1.4841864 0.057794686 -0.43521744 0.23881897 -0.94534 -0.25599986 0.6732935 -0.11773487 0.2442818 0.46160796 -0.25385544 0.37428 -0.8038627 0.49494237 0.56385654 0.40765244 0.06121465
therefor -0.7471337 1.0724976 -0.13058132 -1.9915258 -0.6032509 -2.0155482 0.15762952 0.55821365 -1.6643513 0.20396648 -0.58489 0.44951725 -1.2353967 -0.5839702 0.92915606 0.036395412 0.29024184 0.6908174 -0.13196385 0.55049986 -1.1725378 0.34190091 0.5369638 0.6331934 -0.08112015
solv -0.8601849 1.1569808 -0.042425487 -1.8290575 -0.7398383 -2.0176923 -0.17451121 0.878693 -1.6010915 0.049670346 -0.7874944 0.36823282 -1.0143884 -0.29028726 0.6070904 0.11166217 0.38596874 1.0219004 0.09433155 0.75028956 -1.4349029 0.115626216 0.17752594 0.9618192 0.099868655
without -0.75964767 1.3984823 -0.32954767 -1.92805 -0.8352908 -1.9844211 -0.030278327 0.6935573 -1.6579643 0.1691582 -0.70155025 0.2134047 -1.2570505 -0.55705136 0.7346854 -0.06128783 0.2601485 0.7356091 -0.16178717 0.7019459 -1.3540043 0.16578823 0.3638218 0.93744916 0.15915951
rang -0.689813 1.4793035 -0.43420935 -2.1997414 -0.78078693 -2.2244318 0.085472494 0.6499778 -2.011136 0.20363486 -0.635327 0.41047013 -1.399061 -0.54914236 0.93855894 -0.1309942 0.28737172 0.6517667 -0.38254392 0.60790044 -1.2791643 0.57238823 0.72661173 0.7820802 0.19272643
much -0.62576675 1.5510305 -0.4746711 -1.6671875 -0.7578315 -1.8836423 -0.16778544 0.90523696 -1.6172526 0.06661761 -0.8677016 0.13723572 -1.0583876 -0.31031 0.58094865 -0.20787969 0.21895671 0.8058212 -0.24840005 0.675992 -1.3221787 0.19402367 0.1956026 0.9248486 0.5113137
transform -0.8858193 0.9937708 0.025049154 -2.2492821 -0.8820277 -2.1391745 0.24764705 0.19178484 -1.7657874 0.31280237 -0.17773534 0.5025632 -1.4816107 -0.900749 1.0567391 0.13215643 0.25867715 0.30643037 -0.33996314 0.56243044 -0.98188406 0.49244177 0.8760925 0.95528936 -0.4152584
sever -0.7453296 1.2250715 -0.34924057 -1.4380615 -0.72410315 -1.6738658 -0.20294097 0.77155745 -1.3857813 0.12124714 -0.7669825 0.105422676 -0.9755667 -0.39791685 0.56391907 -0.116153575 0.196921 0.70424086 -0.17795834 0.6158748 -1.2933881 0.04759619 0.15221323 0.92337275 0.28679186
classifi -0.4610119 1.618366 -0.48343274 -1.3136135 -1.1341033 -1.6341873 -0.06734686 0.8607261 -1.3631074 0.093138754 -0.44358352 0.1597705 -0.92848885 -0.70466024 0.42318362 -0.24951263 0.078902714 0.48848456 -0.4907141 0.4375553 -0.9670693 0.24066935 0.11537012 1.1241964 0.5630744
integr -0.5929037 0.5323683 0.059992213 -1.7388748 -0.39168325 -1.5734255 0.14032185 0.12502688 -1.3950664 0.21226305 -0.31152737 0.40558055 -1.0767732 -0.4307643 0.75288486 0.20437996 0.21084997 0.39712736 -0.060823552 0.5180085 -0.80305517 0.36494407 0.7178986 0.4119463 -0.38957065
joint -0.73759145 0.64551926 0.037955504 -2.3192768 -0.8051986 -1.8747822 0.11897809 -0.0639082 -1.7650521 0.18321529 0.016890349 0.44959754 -1.332157 -0.5846883 0.73104966 0.1904332 0.15008047 0.19428039 -0.35748148 0.7446797 -0.78818226 0.8388113 1.0447934 0.75679743 -0.34768867
implement -0.7916435 1.2610703 -0.1222463 -1.677944 -0.59542674 -1.7032186 -0.004173112 0.53908354 -1.4448776 0.21197157 -0.74495953 0.18193923 -1.0829171 -0.5754302 0.6760073 0.07356736 0.19373871 0.82605505 0.0014304692 0.63161093 -1.4136977 -0.22345653 0.2507636 0.8249659 -0.008470972
exist -0.75047123 1.0772896 -0.050270613 -1.8579626 -0.5921141 -1.9247655 0.061375078 0.62768966 -1.6597815 0.2173108 -0.6343921 0.3706664 -1.2299865 -0.5579149 0.8804221 0.021200342 0.2811565 0.7657442 -0.10552378 0.5297894 -1.1804587 0.2927037 0.48491752 0.69803953 0.026880022
known -0.6882547 0.94569445 -0.15741165 -1.6042541 -0.64553916 -1.7785048 -0.07715535 0.7060245 -1.4329442 0.1133595 -0.56748307 0.27346987 -0.9546955 -0.36921012 0.632391 -0.07535768 0.23528498 0.65318894 -0.16457053 0.638859 -1.1171623 0.23594557 0.24695833 0.83122224 0.1695129
curv -0.47905725 1.2340829 -0.42600206 -1.748171 -0.6049859 -1.7863306 0.029529288 0.67226374 -1.6831306 0.1918732 -0.59753996 0.20607193 -1.1166968 -0.31092888 0.8015325 -0.22211926 0.23770957 0.6262334 -0.47338453 0.432506 -1.0114579 0.50486976 0.6345117 0.6440147 0.49384683
close -0.6033288 1.0017452 -0.14539446 -1.7861465 -0.5602859 -1.7275972 0.110482566 0.37818295 -1.5283602 0.18759379 -0.4958229 0.3763647 -1.1104771 -0.4644393 0.76179385 -0.015212085 0.24557376 0.6112837 -0.16468562 0.45528224 -1.0411566 0.3330966 0.5867472 0.5239445 0.02692463
cost -0.40541947 1.218863 -0.28726363 -2.0115304 -0.56112134 -1.8853377 0.23781751 0.6381201 -1.8424649 0.18497926 -0.45625383 0.4848913 -0.9506163 -0.24366826 0.817084 -0.07816868 0.2591868 0.8448679 -0.3074428 0.5213054 -0.8762425 0.67855203 0.6319561 0.33877626 0.27505806
em -0.7484026 0.8703539 -0.20811334 -1.4372952 -0.53608006 -1.5814867 -0.37331277 1.0089453 -1.470362 -0.06765261 -0.8339241 0.21973097 -0.5887562 0.06841057 0.2944348 -0.16052149 0.19926073 0.96387964 -0.21214765 0.8514335 -1.1610361 0.21414298 0.08105115 0.928558 0.5639987
delay -0.6317108 1.2684652 -0.36213964 -1.6920904 -0.529082 -1.6063248 0.026516888 0.13833907 -1.5532082 0.18836612 -0.65338427 0.1115424 -1.196902 -0.5984256 0.7532923 -0.006888048 0.23511674 0.44665998 -0.103943914 0.44747576 -1.240229 0.010301399 0.6299824 0.69780403 -0.069911614
basi -0.64676976 1.0333648 -0.16278973 -1.8344082 -0.804647 -1.9214957 0.08135372 0.5208581 -1.6025143 0.21073766 -0.1507707 0.41203368 -1.0748122 -0.6793529 0.7411378 -0.121617064 0.2721157 0.4091781 -0.3828403 0.49010828 -0.77900624 0.58142966 0.50695676 0.95793086 0.0041015903
continu -0.71809965 1.1301597 -0.0076236585 -1.9948952 -0.7546044 -1.6920506 0.18884613 -0.034065224 -1.5069048 0.20322672 -0.25176856 0.26154462 -1.3101587 -0.71625173 0.71829873 0.18447644 0.15898657 0.33279365 -0.16324764 0.5062477 -0.9723542 0.2366349 0.7218086 0.84658486 -0.34147635
relat -0.70316905 1.132404 -0.18330853 -1.5424575 -0.63788885 -1.5991261 -0.10186068 0.49331436 -1.344259 0.050731998 -0.55817777 0.16726674 -1.0008408 -0.4606024 0.50481683 -0.06579378 0.15568303 0.62359923 -0.15296884 0.52813363 -1.0891898 0.106079355 0.29533058 0.8397726 0.1283622
sound -0.7468164 1.4731456 -0.56976724 -1.3238451 -0.52984726 -1.5451113 -0.16847609 0.59399813 -1.3916856 0.09351533 -1.0692427 -0.019310186 -1.091564 -0.24426888 0.56984925 -0.22582163 0.16193223 0.6723347 0.12709121 0.51799595 -1.4500275 -0.1544398 0.20720394 0.65952265 0.29519203
reduc -0.56872785 1.031706 -0.27364048 -1.7535889 -0.5919922 -1.777144 0.059895996 0.42007133 -1.5725883 0.106445044 -0.4477271 0.2753549 -1.0932854 -0.42839777 0.7779625 -0.015010542 0.23156196 0.46662062 -0.27230197 0.46395025 -0.9654775 0.46586692 0.6050719 0.5974027 0.011431039
express -0.67309123 0.8106856 0.011246022 -1.9982494 -0.576697 -1.9141829 0.2618482 0.41142654 -1.6907153 0.2789681 -0.38106245 0.58792055 -1.2097102 -0.5798094 0.91823834 0.078203656 0.25428897 0.6516126 -0.14175016 0.55754924 -0.95874953 0.46718007 0.69060254 0.5029242 -0.15484232
could -0.61473024 1.2731093 -0.3400063 -1.5718184 -0.7143549 -1.7349206 -0.086094394 0.65453637 -1.5056753 0.08314105 -0.6677715 0.18563457 -0.990391 -0.3421125 0.53606665 -0.12196493 0.20379215 0.67135555 -0.1759264 0.6239127 -1.15781 0.22693616 0.29610258 0.8321138 0.31355304
lead -0.8018344 1.2295355 -0.4197076 -1.9389817 -0.557592 -2.139231 -0.15946932 0.85506207 -1.8480729 0.11047512 -0.90477395 0.26988238 -1.1106589 -0.27893937 0.8444519 -0.16678913 0.29345232 0.9080506 -0.13185836 0.7215548 -1.4023453 0.32596156 0.38565186 0.8696525 0.28547776
group -0.60275185 1.7744598 -0.3195245 -1.9423904 -1.1815039 -1.6773363 0.17762402 0.012140041 -1.6698568 0.11947981 -0.19811195 -0.0072128484 -1.5509526 -1.1476872 0.47414112 -0.033136383 0.051381815 0.065586545 -0.6104106 0.4143264 -1.0711584 0.14954177 0.84158635 1.0381994 -0.004859299
eq -0.5504325 0.6694482 -0.03987499 -1.7844342 -0.50648713 -1.7155875 0.21812092 0.42795765 -1.5289508 0.24554741 -0.27030873 0.5293883 -1.0121907 -0.405439 0.75804067 0.02104978 0.18863358 0.5277617 -0.19654854 0.49177706 -0.74699646 0.6142226 0.6729854 0.36402214 -0.022697762
recent -0.8550472 1.411746 -0.4020431 -1.2745255 -0.60159326 -1.6241891 -0.45432857 1.0130435 -1.2369148 -0.013794077 -1.0821279 -0.0134148365 -0.838423 -0.32631785 0.3487132 -0.16499642 0.11748344 0.9279377 0.0732353 0.69266844 -1.5807784 -0.40300226 -0.26357478 1.1779019 0.4595891
specif -0.5910339 1.1120956 -0.18819626 -1.6337807 -0.73476005 -1.6552342 0.02382488 0.49992076 -1.377355 0.21664508 -0.45581764 0.25814098 -1.0122322 -0.54886234 0.6164328 -0.014441327 0.18326393 0.51746863 -0.17215347 0.5366156 -1.0304735 0.22912523 0.4007996 0.7796101 0.09223194
lower -0.40572903 1.286073 -0.24575786 -1.9193518 -0.61475176 -1.8843939 0.17447308 0.74345255 -1.8114212 0.15445635 -0.5961744 0.3814593 -1.16878 -0.38160253 0.9043822 -0.122687936 0.2716421 0.8019131 -0.40534186 0.37800777 -0.9832822 0.58613694 0.70158076 0.4830439 0.33150524
attractor -0.792031 1.1495985 -0.07098438 -1.7512658 -0.7998434 -1.516593 -0.0067794304 0.19914958 -1.3573676 0.19112264 -0.42669564 0.100818224 -1.1725413 -0.59972364 0.5373379 0.09207839 0.1476187 0.46243775 -0.19299993 0.58973897 -1.2290533 0.06833931 0.51123005 1.0087653 -0.12328318
us -0.5466366 0.36583903 0.24982844 -1.7392045 -0.4437103 -1.7742903 0.33081985 0.45176867 -1.2781134 0.38975093 -0.16874179 0.7442846 -1.0159874 -0.71273655 1.0963783 0.19160302 0.15438847 0.6492413 -0.13474183 0.39898005 -0.840705 0.45828906 0.5189656 0.38910043 -0.29308328
search -0.63586855 1.4326398 -0.29388928 -1.5739888 -0.7576894 -1.7646127 -0.05187673 0.6608695 -1.4895201 0.03982724 -0.6222086 0.2104847 -1.0377798 -0.43774018 0.59598017 -0.10854922 0.15901347 0.70125395 -0.30889106 0.4520083 -1.1411672 0.2062296 0.3996845 0.8139055 0.27029872
length -0.36100826 0.8983098 -0.12558736 -1.8952558 -0.5529238 -1.6998872 0.39387354 0.1680341 -1.5469458 0.24908216 -0.063047245 0.48393387 -1.2349805 -0.68012196 0.9289893 -0.016419219 0.23122302 0.25815284 -0.3168961 0.27657977 -0.6267411 0.60828066 0.8497177 0.20557265 -0.25443995
evalu -0.61937004 1.378408 -0.42070547 -1.6006213 -0.8599629 -1.7614651 -0.057024766 0.81052434 -1.5812443 0.08402905 -0.593277 0.23293205 -0.9717832 -0.41837227 0.5226654 -0.23028861 0.18055676 0.6372214 -0.38254318 0.64307606 -1.0604364 0.38782373 0.32246968 0.9002812 0.4002616
behavior -0.7953652 1.2464086 -0.265125 -1.7980268 -0.555154 -1.8665054 -0.07574805 0.5824001 -1.5967641 0.24147448 -0.8787038 0.16632462 -1.1987925 -0.46443772 0.73556054 -0.02145423 0.21705557 0.8125529 -0.0093118325 0.6196972 -1.4986613 -0.05966831 0.38108963 0.8127616 0.12457829
final -0.4806524 1.0738202 -0.2357494 -1.5804653 -0.62442416 -1.4789219 -0.0007584329 0.39488357 -1.3998679 0.13585036 -0.3608523 0.2459419 -0.9365548 -0.48070174 0.5357935 -0.07827762 0.12250418 0.4757164 -0.2854888 0.46407163 -0.89401156 0.3400773 0.4793942 0.6322938 0.12816279
face -0.5359465 1.7975245 -0.6917455 -1.2573689 -1.2075087 -1.6952378 -0.20847489 1.0305092 -1.3686285 0.15913102 -0.59871066 0.05144333 -0.9680711 -0.54048026 0.38985845 -0.42706904 0.17542729 0.4412118 -0.6116022 0.6352693 -1.1715387 0.1695039 0.085152954 1.357218 0.86230433
introduct -0.61706173 0.94985604 -0.16353172 -1.0093247 -0.5020349 -1.1953409 -0.22599582 0.5685695 -0.9189137 0.030363407 -0.60383713 0.025754608 -0.6726497 -0.33864188 0.31611738 -0.017411567 0.13884099 0.53075844 0.05285756 0.47510198 -1.0759051 -0.23430511 -0.088867255 0.8610159 0.13975555
must -0.521108 1.1123787 -0.16209088 -1.7730778 -0.5710719 -1.6909667 0.15222995 0.26571906 -1.5110688 0.15421362 -0.35432678 0.33315846 -1.09354 -0.5133501 0.67924947 -0.0009462675 0.21035092 0.49720642 -0.1620731 0.4687126 -0.9109727 0.36117277 0.6241166 0.4874756 -0.07628702
product -0.52658844 0.9761157 0.23034571 -2.231385 -0.70834756 -2.1217122 0.5192875 0.0058438964 -1.9406312 0.29229203 0.18586285 0.7578131 -1.3921787 -1.0815673 1.1153196 0.1987889 0.16279592 0.36396122 -0.45608586 0.095376685 -0.4822053 0.85424626 1.1573695 0.45481524 -0.4213649
effici -0.6409435 0.82133424 -0.14529946 -1.3839965 -0.51577103 -1.4124647 -0.22118513 0.6630176 -1.174399 0.04622039 -0.5602558 0.17461856 -0.68939537 -0.13311353 0.38899884 -0.0069902046 0.19745207 0.70762855 -0.07900334 0.6976834 -0.99862474 0.15182768 0.09546225 0.73942536 0.17440915
al -0.62412715 0.9966045 0.17461129 -1.9405586 -0.24790856 -1.7120957 0.31958622 0.71648735 -1.3922578 0.5881892 -0.38045484 0.600895 -1.0942405 -0.36559054 0.98547924 0.020165682 0.21440792 0.9553635 0.06218106 0.509349 -0.9842231 0.24026853 0.4620949 0.22462173 0.0042757057
exp -0.7324031 0.4893156 0.5368043 -2.8748798 -0.54657906 -2.6846707 1.0636561 0.14078818 -2.3627272 0.74185205 0.17152634 1.3886507 -1.7421833 -1.1980342 1.6700919 0.25372577 0.21250372 0.6997594 -0.26574513 0.32786086 -0.52138865 1.2559683 1.4865661 -0.10039556 -0.7419372
tabl -0.47977003 1.4211596 -0.6995003 -1.4747163 -0.86740524 -1.7416617 -0.1354827 1.1024346 -1.5393853 0.18971947 -0.6640107 0.15031487 -0.9047388 -0.31255972 0.6032462 -0.42516205 0.19570987 0.67745614 -0.57426965 0.61090636 -1.0873889 0.41916358 0.23734652 0.9587926 0.8588411
recognit -0.5173317 1.4635011 -0.5824651 -0.8380684 -0.77865285 -1.4152234 -0.2620306 1.0023179 -1.1056931 -0.031372618 -0.91773707 -0.073986426 -0.61901456 -0.27516234 0.36609927 -0.26976663 0.1336225 0.7237821 -0.20805113 0.43175247 -1.2642089 -0.16067344 -0.057870105 1.0865932 0.8079677
zi -0.44391137 0.8444863 0.22533433 -2.1025271 -0.65637296 -1.9109725 0.71679705 -0.025647065 -1.8185495 0.4996686 0.17172277 0.839897 -1.3929919 -1.0540445 1.1303082 0.15607375 0.069702856 0.3561913 -0.4229833 0.15593538 -0.40635714 0.9025495 1.1894467 0.07254449 -0.35808656
within -0.61510766 1.1943358 -0.2566721 -1.7673961 -0.6660853 -1.7631545 0.07339113 0.42107865 -1.573779 0.12345832 -0.5576368 0.29649594 -1.1146945 -0.47845563 0.6949926 -0.042570535 0.1832514 0.5820351 -0.16104071 0.5053073 -1.1048769 0.31658944 0.5534083 0.62677526 0.07203319
equal -0.47884342 0.97320837 -0.23495623 -2.0649683 -0.749744 -1.971407 0.28198612 0.25964466 -1.837473 0.27264026 -0.0671836 0.5588947 -1.3073299 -0.62367004 0.9170237 -0.102625474 0.2264314 0.2352103 -0.5037734 0.43627292 -0.6602675 0.917969 1.0002052 0.47190756 -0.05444242
suggest -0.7924388 1.2258109 -0.3034332 -1.6820747 -0.56673235 -1.8618357 -0.2043281 0.76299405 -1.5641097 0.071793854 -0.8922698 0.20508067 -1.0568932 -0.29154003 0.6496515 -0.095874876 0.23347974 0.9033871 -0.02280683 0.667621 -1.3760955 0.09904297 0.20866796 0.83769006 0.22500941
mode -0.61174583 0.78622663 -0.007260311 -1.9440782 -0.6239666 -1.540089 0.115381084 -0.083895594 -1.415687 0.2233592 -0.20423543 0.31811994 -1.1082945 -0.46390226 0.57363605 0.16934735 0.1289846 0.31958687 -0.10837948 0.6836249 -0.8437645 0.31102455 0.7378687 0.5577553 -0.31282717
plot -0.30726147 1.1507462 -0.6405682 -1.528152 -0.53553736 -1.4406121 0.025431085 0.6230088 -1.5798815 0.21829954 -0.46977177 0.039820366 -0.9939607 -0.07228029 0.67799824 -0.4323836 0.17679025 0.4249715 -0.7038541 0.39786667 -0.8912727 0.62478316 0.7078966 0.6048387 0.7649403
reward -0.49460202 1.1210663 -0.16856584 -2.1459804 -0.693918 -1.9327694 0.26812926 0.3697431 -1.8482746 0.27232254 -0.34741253 0.48982033 -1.1966497 -0.48021844 0.8809178 -0.04417385 0.19679438 0.5881312 -0.29362345 0.54922473 -0.8814739 0.6875225 0.89439505 0.39875245 0.08314816
correct -0.48389488 1.3346657 -0.5346722 -1.8220537 -0.614391 -1.8247323 -0.056492228 0.54922384 -1.740689 0.07256591 -0.69267833 0.15716262 -1.0996795 -0.2938415 0.638824 -0.168692 0.23799424 0.61241347 -0.2864338 0.63298523 -1.1965177 0.3977671 0.49792328 0.70370203 0.38214052
better -0.83867127 1.6171613 -0.69349986 -1.8601809 -0.90905225 -2.1415203 -0.37981468 1.2049228 -1.8412093 0.02442313 -1.1288537 0.08201529 -1.1404598 -0.2436251 0.61451733 -0.31484917 0.27350238 0.94862586 -0.3346926 0.9566986 -1.6564488 0.23904406 0.14362226 1.3113732 0.660026
detail -0.59621257 1.0332972 -0.24811241 -1.3680028 -0.48963255 -1.5378056 -0.13016781 0.7151408 -1.3623348 0.090557374 -0.7047192 0.246668 -0.88349134 -0.3430906 0.6173298 -0.101934366 0.14261064 0.77917516 -0.13706985 0.46375218 -1.1225708 0.017989699 0.26332417 0.7359057 0.30476663
transit -0.44492596 0.30742756 0.31646118 -2.0655997 -0.4817855 -1.4767989 0.39944613 -0.4409392 -1.4183687 0.33454815 0.20489801 0.5539106 -1.0977032 -0.5976773 0.71837723 0.30854425 0.16754444 0.14352947 -0.05504766 0.54717016 -0.4540003 0.6288127 1.0710483 0.21412642 -0.6530441
light -0.54956573 1.2976036 -0.5089896 -1.8110485 -0.5146518 -2.0314152 0.17111239 0.67447215 -1.8863987 0.18351048 -0.84098816 0.36053723 -1.326995 -0.41077963 1.1145653 -0.15674506 0.19338323 0.7325451 -0.10452601 0.30618832 -1.2280341 0.37762585 0.7097542 0.28387317 0.3349213
trial -0.5323046 1.2609181 -0.38525355 -1.7576039 -0.8279661 -1.8256025 0.12830535 0.85443556 -1.5958166 0.39279664 -0.49429578 0.41294953 -1.1486181 -0.5377971 0.9396567 -0.18922246 0.2536715 0.5978393 -0.5198849 0.50824016 -1.0243559 0.461172 0.49000305 0.6142476 0.44234297
empir -0.504875 0.9873013 -0.42077953 -1.3114337 -0.6050748 -1.5020447 -0.19039519 0.91109186 -1.2777903 0.08824516 -0.6552399 0.13630892 -0.67642957 -0.09763344 0.42517254 -0.25004163 0.19201346 0.76077765 -0.28797752 0.64971197 -1.0368395 0.28330782 0.08169388 0.79003644 0.51893526
relev -0.52173245 1.3105503 -0.2545901 -1.6237622 -0.9712308 -1.9037466 0.01293677 0.50421804 -1.5704246 0.05565158 -0.18503267 0.29004934 -1.1104662 -0.8921606 0.71038216 -0.0836319 0.11311066 0.27540764 -0.4590259 0.21330658 -0.8179826 0.41980183 0.48877457 1.0310574 0.110992335
encod -0.4653714 1.0455949 -0.21970409 -1.5994313 -0.6112545 -1.4565904 0.17063788 0.006237823 -1.3598409 0.08705818 -0.24261354 0.16979994 -1.1010736 -0.66755885 0.6879519 0.070933454 0.11097225 0.11756928 -0.22170486 0.31070182 -0.82726336 0.28939816 0.64039123 0.5198086 -0.15606678
choos -0.60739136 0.8246173 -0.049722724 -1.9769673 -0.6354631 -1.8892823 0.23722583 0.4637514 -1.6249537 0.29235327 -0.28464028 0.56459594 -1.1565251 -0.5649548 0.9165561 0.037627555 0.24839021 0.5511844 -0.3415254 0.5440498 -0.8825872 0.6005432 0.73116004 0.478378 -0.06960962
sum -0.41079497 0.8435306 -0.19113196 -2.2810411 -0.46682537 -1.796988 0.34502602 -0.25359806 -1.8315048 0.26269898 -0.0053641084 0.45894426 -1.3561462 -0.6151744 0.91864055 0.09678854 0.21161197 0.07039555 -0.2936962 0.39838314 -0.66323566 0.8036203 1.1798427 0.2431026 -0.3931187
propag -0.69619703 0.96119356 -0.13846673 -1.9234027 -0.41183 -1.4590026 -0.115732186 0.24019408 -1.5196586 0.12382345 -0.6045009 0.016206589 -1.0478188 -0.17605719 0.41520986 0.11180459 0.18326576 0.6992167 0.10290052 0.8875889 -1.3064466 0.12130818 0.38192087 0.7110141 0.049610365
demonstr -0.80258447 1.3877196 -0.458754 -1.4932615 -0.6625654 -1.7678415 -0.3270418 1.0070298 -1.4698968 0.12115194 -0.97691596 0.05857358 -0.9724129 -0.26268405 0.56635594 -0.19677319 0.21641551 0.9724078 -0.14569849 0.7060278 -1.5233572 -0.11864321 0.016161304 1.0684403 0.5366662
part -0.6701811 1.3981495 -0.18105213 -1.9205046 -0.8318187 -1.8356797 0.12961087 0.37883154 -1.6389412 0.26688382 -0.4205876 0.25113103 -1.3872277 -0.81201917 0.8584817 -0.028144753 0.17750621 0.40887555 -0.35134166 0.42064103 -1.1537101 0.17215532 0.67529136 0.8374176 0.024347417
total -0.31018016 1.0422652 -0.22641225 -1.9299364 -0.61590385 -1.8542594 0.34065875 0.26597732 -1.7968373 0.22008918 -0.18109125 0.4686002 -1.2517838 -0.63571614 0.992754 -0.061783966 0.21461204 0.30004093 -0.38217163 0.26096174 -0.67501277 0.75521344 1.0163798 0.25529608 -0.11278664
achiev -0.616892 1.3318772 -0.4263243 -1.7338059 -0.73964256 -1.8720112 -0.07440452 0.8499807 -1.6734821 0.07599497 -0.76697624 0.24309841 -1.0059423 -0.3115267 0.63388413 -0.20452556 0.21572231 0.7500131 -0.35031226 0.63603824 -1.1707807 0.42170045 0.37405774 0.79963213 0.46494314
version -0.7911523 1.3635755 -0.2331609 -1.8155528 -0.7948878 -1.9170487 -0.057215676 0.6858833 -1.6755923 0.12633203 -0.63515717 0.2429643 -1.1800252 -0.60156214 0.7070656 -0.035122085 0.18932992 0.744245 -0.26901916 0.59109193 -1.2666129 0.15250716 0.4165812 1.0176668 0.19547911
best -0.46177053 1.1251156 -0.38722178 -1.5201919 -0.7231919 -1.6379524 -0.00014759513 0.6682926 -1.4587185 0.12537281 -0.5371637 0.22278385 -0.9659726 -0.3121667 0.6600394 -0.19470744 0.25095272 0.56545603 -0.3842127 0.4864792 -0.9030982 0.39811397 0.4837763 0.70183647 0.3334915
xt -0.49946514 0.7353474 0.19406177 -2.3441606 -0.8647068 -2.1552672 0.58563894 0.092502154 -1.8558046 0.4696814 0.26485884 0.847548 -1.4273789 -1.0400244 1.247646 0.08657686 0.17670693 0.1662109 -0.39832234 0.30708143 -0.51786774 0.9696935 1.1148019 0.26944152 -0.44749665
origin -0.5804274 1.3765986 -0.35963246 -1.8242255 -0.8895298 -1.7909712 0.14147042 0.42531306 -1.6035172 0.18314596 -0.37969306 0.21344577 -1.2567116 -0.67913777 0.76907897 -0.14010301 0.18278414 0.37574804 -0.43411514 0.39540628 -1.006352 0.37855914 0.67455065 0.83433074 0.13299702
entropi -0.4047627 0.64699095 -0.28341404 -1.8202391 -0.536184 -1.7501897 0.16114272 0.3184505 -1.6583892 0.080018006 -0.17061955 0.46033975 -0.99805886 -0.23992263 0.76014435 -0.110876516 0.18550709 0.260303 -0.3750813 0.45413613 -0.5820856 0.9449832 0.87590563 0.32472447 0.01329782
memori -0.6479883 1.2769694 -0.33938786 -1.5396345 -0.59586096 -1.5867718 -0.12118629 0.53388953 -1.3403689 0.16197845 -0.6647313 0.14861362 -1.0373878 -0.41028902 0.48414743 -0.071741536 0.18796794 0.6760662 -0.12024329 0.63164926 -1.1952118 -0.017382627 0.23186636 0.84531265 0.16510405
chosen -0.41650605 0.89046526 -0.20428255 -1.7221942 -0.7197083 -1.5449184 0.27576864 0.18825294 -1.4230926 0.26936427 -0.035872523 0.4396307 -1.0854752 -0.60793746 0.6762014 -0.0780538 0.14665712 0.16091387 -0.413838 0.39528996 -0.5944211 0.68663126 0.77552015 0.43150634 -0.079654016
theori -0.8849544 1.0846943 -0.26803735 -1.6202883 -0.5089443 -1.8782494 -0.20598337 1.0255408 -1.476113 0.16535227 -0.99078196 0.21569431 -0.9405963 -0.21332839 0.69114333 -0.005395397 0.29008487 1.012999 0.0736321 0.80131537 -1.580861 -0.09542119 -0.071182005 0.84579104 0.32496098
develop -0.9418763 1.4253974 -0.26050344 -1.4990227 -0.73298293 -1.7586038 -0.3196671 0.94312364 -1.3706518 0.11565949 -0.9993335 0.08779003 -1.0128508 -0.42041278 0.45010325 -0.05678098 0.18402846 0.96453375 0.029262338 0.8344739 -1.6696143 -0.3351534 -0.13553667 1.1673578 0.34332064
rather -0.68200314 0.8556471 -0.09769021 -1.9159825 -0.6687047 -1.8092792 0.10326885 0.36945215 -1.5432975 0.24554062 -0.3078491 0.37744465 -1.1304669 -0.47437388 0.7720947 0.065598845 0.24475539 0.48883146 -0.19427653 0.64943266 -0.975615 0.4712294 0.6391422 0.6679609 -0.1426178
shape -0.7276134 1.1202102 -0.32872096 -1.936184 -0.55971885 -2.0075955 0.022413665 0.6033603 -1.826139 0.15160462 -0.6347395 0.34058288 -1.204048 -0.36758548 0.9262768 -0.11532215 0.25816533 0.6323288 -0.23166297 0.5228412 -1.1796994 0.42853728 0.6501229 0.70586187 0.0739695
